,0,1,2,3,4,5,6,7,8,9,10,11,12,13,14,15,16,17,18,19,20,21,22,23,24,25,26,27,28,29,30,31,32,33,34,35,36,37,38,39,40,41,42,43,44,45,46,47,48,49,50,51,52,53,54,55,56,57,58,59,60,61,62,63,64,65,66,67,68,69,70,71,72,73,74,75,76,77,78,79,80,81,82,83,84,85,86,87,88,89,90,91,92,93,94,95,96,97,98,99,100,101,102,103,104,105,106,107,108,109,110,111,112,113,114,115,116,117,118,119,120,121,122,123,124,125,126,127,128,129,130,131,132,133,134,135,136,137,138,139,140,141,142,143,144,145,146,147,148,149,150,151,152,153,154,155,156,157,158,159,160,161,162,163,164,165,166,167,168,169,170,171,172,173,174,175,176,177,178,179,180,181,182,183,184,185,186,187,188,189,190,191,192,193,194,195,196,197,198,199,200,201,202,203,204,205,206,207,208,209,210,211,212,213,214,215,216,217,218,219,220,221,222,223,224,225,226,227,228,229,230,231,232,233,234,235,236,237,238,239,240,241,242,243,244,245,246,247,248,249,250,251,252,253,254,255,256,257,258,259,260,261,262,263,264,265,266,267,268,269,270,271,272,273,274,275,276,277,278,279,280,281,282,283,284,285,286,287,288,289,290,291,292,293,294,295,296,297,298,299
acrimonious,0.32679,0.068112,-0.42994,-0.82852,-0.022124,-0.12297,0.76461,0.28258,0.30853,-0.45966,0.38388,0.4848,0.2366,0.74013,0.030102,0.61623,0.25492,-0.062113,0.039569,-0.21077,0.59108,0.47928,-0.090967,-0.43319,-0.94194,-0.025052,0.18586,0.17909,0.23513,-0.14853,0.052475,-0.46306,0.12552,0.50046,-0.38377,0.046308,-0.1599,-0.28398,0.21746,0.50203,-0.44177,0.29074,-0.35336,0.2065,-0.028034,-0.49917,-0.29529,-0.70782,-0.48952,-0.069777,0.46726,-0.25634,-0.48144,-0.090897,-0.16364,-0.37299,0.091355,-0.4487,0.17375,0.75041,-0.21679,-0.52135,0.030338,-0.051698,-0.025114,-0.1605,0.35177,0.60854,-0.39833,0.048666,-0.34614,0.18288,-0.30689,0.42161,-0.0073711,-0.58948,0.50376,0.28353,0.059164,0.21301,-0.20578,0.037312,0.64558,0.038034,-0.28868,0.049939,-0.48316,-0.28822,0.25946,0.077872,0.036206,0.12095,0.10059,-0.1403,-0.54756,-0.37986,-0.2208,0.091311,0.15046,0.001923,0.068408,0.065251,0.37961,0.07304,0.33406,-0.31935,0.20476,-0.46352,0.0131,-0.010734,0.10336,0.50493,-0.19345,0.36583,-0.2461,0.37904,0.39793,0.42806,-0.24335,-0.31567,0.17958,-0.20231,0.093008,-0.16971,0.057796,-0.13953,-0.35645,0.21961,-0.069053,0.27478,0.22175,-0.14956,-0.15251,-0.23761,-0.63246,-0.26308,0.050571,-0.013901,-0.26192,-0.33995,-0.104,-0.20453,0.0034673,0.25091,0.54237,0.025338,0.48459,0.012297,0.079605,0.03446,-0.28852,0.1511,-0.32073,0.44112,-0.61747,-0.17431,-0.34084,0.62366,-0.065974,-0.35681,0.43624,-0.21938,-0.013789,0.51376,0.094672,0.010212,0.020995,0.11724,-0.051131,-0.09819,0.18491,-0.019741,-0.36734,-0.43089,-0.17261,-0.39552,-0.28473,0.087481,0.27618,-0.093896,-0.089389,-0.26996,0.087745,-0.13193,0.16449,0.04955,0.044087,-0.26492,0.26757,0.60101,-0.049891,-0.063511,-0.08482,-0.6636,0.20513,0.18989,-0.052036,0.21931,-0.39689,0.27296,0.21024,-0.39653,-0.30422,0.31432,-0.2823,-0.19154,-0.14391,0.35361,0.05861,0.31205,0.25758,0.35995,-0.28484,0.10875,0.51309,0.35432,0.084986,-0.57477,-0.11581,0.39616,-0.38022,0.85832,0.077482,-0.025934,-0.25278,-0.24001,0.033607,-0.30353,-0.13041,0.19367,-0.27523,-0.03855,0.012589,-0.053962,-0.6082,-0.001181,0.50518,0.40146,0.39588,0.072571,-0.19545,0.35463,-0.21033,-0.3234,0.026772,-0.21274,0.31404,-0.19375,0.19818,-0.1295,-0.071894,-0.03742,-0.12926,-0.048439,-0.40728,-0.21409,-0.23032,0.30572,-0.069814,0.10498,0.098257,0.020448,0.51172,0.7288,-0.19971,0.34418,0.18234,0.081334,-0.58387,0.12946,0.21703,-0.057431,0.18416,0.27291,-0.030072,-0.0076037,0.64047,0.17353,-0.42228,0.20376,-0.098874,-0.08292,0.63903,0.060343,-0.27165,0.058045,-0.092116,0.80777,-0.24671,-0.69155,-0.34246,0.57478,0.12886,-0.19802,-0.016462,-0.28062,0.15285,0.04485,0.073983,-0.088426
affable,-0.1171,0.22992,0.07897,-0.29296,-0.14306,0.06217,0.074686,-0.030473,0.12137,0.10431,-0.03103,0.40638,-0.045114,0.16489,0.046044,-0.0076454,0.30955,0.16912,-0.10068,-0.16635,0.070443,0.55839,0.075123,-0.51266,0.20421,0.20959,0.032335,-0.38205,0.52478,-0.10137,0.084936,0.18859,0.43454,0.53234,-0.11573,-0.20097,-0.015591,0.10332,-0.0099854,0.20339,0.31742,0.34069,-0.45559,0.11507,-0.070781,-0.2135,-0.1233,-0.060417,0.27617,0.17384,-0.00095562,0.16399,-0.34122,0.34773,0.28349,-0.10457,-0.35236,0.035519,-0.068524,-0.19237,-0.4811,-0.010207,-0.11682,0.23846,-0.34006,0.078541,-0.51819,0.34609,0.16946,-0.32408,0.020813,-0.073517,-0.055205,0.032327,-0.010918,-0.24209,-0.33466,0.27504,0.015582,0.071178,-0.0062965,0.22119,0.83798,-0.061099,0.13555,-0.23938,-0.07126,-0.11282,0.21891,0.39964,0.25168,0.14127,-0.0065366,-0.44669,-0.068842,-0.17428,-0.30466,0.30668,0.35393,-0.12813,0.11304,0.26697,0.42624,-0.3448,0.055411,-0.019647,-0.28015,0.10923,-0.27054,-0.54247,0.29398,0.0016887,0.29719,0.29127,-0.1849,-0.31631,-0.0063371,-0.082846,-0.31226,-0.84701,1.0422,-0.37247,-0.24416,-0.29397,-0.51434,-0.094341,0.55382,-0.093649,0.094052,0.094959,0.07415,0.0077031,-0.64248,-0.15233,-0.69814,0.10224,-0.28529,0.14183,0.015039,0.17605,-0.33454,0.34056,0.0027354,0.18964,0.25291,0.28023,-0.044427,0.022232,-0.14653,-0.16752,0.0038899,-0.37793,0.20728,0.051709,-0.54626,-0.44794,-0.3061,0.63575,0.1285,-0.15275,0.36937,-0.74344,-0.25908,0.49104,-0.23906,0.040221,-0.021303,0.56794,0.030736,0.51352,0.060154,0.22092,0.10866,-0.15082,0.099536,0.53721,-0.32414,-0.085133,0.17995,0.26558,-0.60339,0.056607,-0.21997,-0.14227,0.36926,0.28532,0.15103,0.19958,-0.10561,0.61887,0.18606,0.55189,-0.83672,-0.42997,0.21068,-0.34426,0.21227,0.32692,-0.45065,0.18893,0.22815,0.24723,0.12183,-0.096828,0.21174,0.052939,-0.10423,0.34812,0.05487,-0.054276,-0.0036374,0.36618,0.032882,0.56282,0.49311,0.036833,0.67235,-0.95945,-0.3453,0.53222,0.050089,-0.099315,0.12375,-0.00093116,-0.044674,0.42904,0.15125,-0.28208,0.20636,0.58816,0.35203,-0.029282,0.47479,-0.15377,0.27507,-0.1074,0.14452,-0.56274,0.49462,0.35874,0.30727,-0.039782,0.035683,-0.016576,-0.054251,-0.15843,0.33791,-0.084723,0.6393,0.14492,0.35558,0.086679,-0.11301,0.041751,-0.46909,0.21836,0.059146,-0.25035,-0.35296,0.021405,0.31948,-0.16329,0.50223,-0.39136,-0.40383,0.2453,0.48824,-0.27768,-0.41261,-0.50564,0.069072,-0.32237,-0.041008,0.094224,0.055003,0.27497,0.12761,-0.27992,-0.16044,-0.28144,0.098193,-0.47941,0.181,-0.31131,-0.57419,0.089946,-0.097336,0.94339,-0.17638,-0.25281,-0.44826,-0.15392,0.68893,-0.20907,-0.30659,-0.23239,-0.11267,0.16227,0.41351,0.037415
affectionate,-0.29809,0.073449,-0.082487,-0.019782,-0.10792,0.21517,0.12313,-0.088252,0.14715,0.12366,-0.24743,0.1607,-0.1535,0.15273,-0.21512,-0.13811,0.35785,-0.22312,-0.3359,-0.17857,0.36893,0.33668,-0.14568,-0.32706,-0.34258,-0.13566,-0.28292,0.12906,0.076042,0.49969,-0.065253,-0.079582,0.4019,0.18694,-0.16168,-0.28655,0.18762,0.1874,0.083149,-0.063898,-0.34339,0.29849,-0.014523,-0.27393,-0.11891,-0.32249,-0.24816,-0.28057,0.2659,0.47238,-0.0095555,0.11503,0.25925,0.28887,0.060371,-0.40441,-0.092416,-0.36676,0.058273,0.37882,-0.62094,-0.19522,-0.30409,-0.034702,-0.28382,-0.28847,-0.12825,0.27115,-0.14125,-0.086894,-0.070541,-0.033558,-0.26751,0.023072,-0.15329,-0.54484,-0.026093,0.40281,0.37869,0.00069587,0.099937,0.65153,0.13247,0.29537,0.014008,0.15981,0.050478,-0.53039,-0.15965,-0.15799,0.34057,0.10877,0.26455,-0.21328,-0.262,-0.28981,-0.1335,-0.16433,-0.01409,-0.17384,0.047555,0.53848,0.36958,-0.014125,0.67426,0.36432,-0.34016,-0.015061,-0.35054,-0.80313,-0.11795,-0.029513,0.42045,0.36418,0.12593,-0.42373,0.05664,0.27118,0.015381,-0.74585,0.50378,-0.009611,-0.21347,-0.017558,-0.18374,-0.38921,0.16311,-0.20776,0.11702,0.069178,0.07448,-0.5016,-0.24719,0.091108,-0.54572,-0.14723,0.0024142,0.0053162,-0.055992,-0.065581,-0.31644,0.066105,0.12303,-0.011934,-0.2552,0.14033,-0.19793,0.14351,0.026882,0.087517,-0.17086,-0.11684,0.40859,0.47034,-0.25787,-0.49327,-0.41093,0.38083,0.17184,-0.52034,0.48707,-0.41187,-0.14181,0.36317,-0.46606,0.032992,0.0043197,0.50576,-0.084241,-0.12637,-0.16587,0.56895,0.058471,0.13377,-0.18719,0.12649,-0.33576,-0.30473,0.37549,0.019555,-0.044432,-0.28564,-0.066793,-0.19167,-0.19053,0.20925,-0.027813,0.28435,-0.20218,0.63759,-0.15673,0.53248,-0.30309,-0.20127,0.11625,-0.16707,0.29132,0.95542,-0.51667,0.15093,0.016985,-0.0080471,-0.097039,-0.13219,-0.0019776,0.50629,-0.098943,0.22748,0.37141,-0.13466,0.052161,0.35033,0.056798,0.39616,0.29953,0.23881,0.50785,-0.68704,-0.11506,0.044696,0.097161,0.20129,-0.18263,-0.025484,-0.30484,0.074278,0.36132,-0.45497,0.13049,0.1634,0.052918,0.42333,0.23418,-0.0022159,0.32518,0.28447,0.0027272,-0.07769,0.19829,0.1318,0.29695,0.21966,0.056657,-0.13864,0.054981,-0.085584,0.5866,0.32448,-0.067971,0.18005,0.096477,0.2806,0.042392,-0.068847,-0.44144,0.16412,0.066995,0.34677,-0.42004,0.10475,0.42049,-0.62946,0.5403,-0.07668,-0.34029,0.1823,0.1312,0.043081,0.056743,-0.33656,0.4016,-0.14344,-0.1611,0.66168,0.10458,0.085295,0.31273,0.28625,0.048323,-0.21108,0.0093899,-0.50057,0.44174,-0.37103,-0.51537,0.066022,-0.27224,0.65846,-0.49656,-0.49619,-0.30214,-0.092516,0.41345,-0.095854,-0.20777,-0.044234,-0.33614,0.030159,0.45835,0.0042504
aggressive,0.14648,0.59686,-0.10163,-0.28059,0.45107,-0.062194,0.15952,-0.1062,-0.25623,-0.36088,0.12396,0.40264,0.33187,0.070241,0.3567,0.17089,-0.022503,-0.54428,-0.48738,-0.22622,0.30893,1.016,-0.20005,-0.30194,0.15121,-0.18017,0.53678,-0.3743,-0.37265,0.038084,-0.12038,0.13558,0.33299,0.26133,-0.35632,-0.31382,-0.028742,-0.56788,-0.28628,-0.1403,0.52101,0.15884,-0.34677,-0.19773,-0.12725,-0.29176,-0.10075,-0.28073,-0.17119,0.21886,0.19743,-0.16867,-0.058385,-0.13509,0.28723,0.068229,-0.26793,-0.13291,0.10684,0.56913,-0.43711,-0.3143,-0.18975,0.36418,-0.25907,-0.046309,0.15591,0.29654,-0.26047,-0.013774,-0.2827,-0.10252,-0.29623,-0.17431,-0.14242,-0.033926,-0.038892,-0.091102,-0.012241,0.050196,-0.099457,0.44532,0.1404,-0.086248,0.40077,-0.36542,-0.18539,0.29928,0.10307,0.16696,0.34772,-0.19047,0.49684,-0.24528,-0.22795,-0.3155,0.23222,0.075884,0.11733,-0.52536,0.42115,-0.095442,0.071727,-0.10109,0.33708,0.055803,-0.064664,-0.10119,-0.014571,-0.39209,-0.2269,0.18804,0.12566,0.23056,0.073471,-0.28457,0.24816,0.32107,-0.45868,-0.28405,0.075859,0.42166,-0.23005,0.24396,-0.044377,0.098219,-0.37159,0.42653,0.34858,0.30478,0.32975,-0.10985,-0.15393,0.39942,0.36801,-0.5502,-0.02361,-0.43697,-0.024136,-0.0028654,-0.33038,0.10938,-0.35425,0.048406,0.36751,0.0047991,-0.11927,-0.18651,0.067053,-0.12543,0.10656,-0.10826,0.17634,0.2548,-0.49392,-0.43143,-0.092473,0.41663,0.0265,0.28355,0.31179,-0.45404,0.12024,0.063148,-0.33473,0.2737,0.25188,0.19286,-0.37057,-0.037184,0.31047,-0.17112,0.033464,-0.16361,-0.051403,-0.26984,-0.062094,-0.20281,0.25522,0.1927,-0.14232,-0.39531,-0.16091,-0.079746,0.34023,-0.00779,0.19249,0.38074,0.48927,0.32874,-0.31579,0.46193,-0.22375,-0.015825,-0.40097,0.032593,0.25234,0.39645,-0.094037,-0.14657,-0.027056,0.28484,-0.44486,-0.006232,0.25502,0.40485,-0.17703,0.30923,0.4021,0.012222,0.17565,0.32915,-0.13615,0.27817,0.17763,0.27916,0.26843,-0.34686,-0.064452,-0.13915,-0.040475,0.46814,-0.2887,0.08616,-0.51954,-0.46506,0.037665,-0.38392,-0.30776,0.20935,0.40347,0.21987,-0.015916,-0.14413,-0.34788,0.077066,0.26561,-0.25149,0.16119,0.046774,0.41034,0.37913,-0.69885,-0.20231,-0.028983,-0.48097,0.34337,0.12967,-0.11496,-0.13163,-0.42254,-0.10181,-0.1013,0.47585,-0.54817,-0.05097,-0.2888,-0.29775,-0.30638,0.029598,0.36436,0.026816,0.046884,0.19788,-0.2984,0.26285,0.14141,0.018544,-0.34208,-0.1284,-0.44634,-0.35928,0.24292,-0.17573,-0.020776,0.37482,-0.023568,0.25824,0.21406,-0.47705,0.39277,0.043955,0.044811,-0.57876,-0.45705,-0.10389,-0.19923,0.22631,-0.19491,-0.45211,-0.31694,0.19326,0.50655,-0.24776,-0.35424,-0.075937,0.16997,0.41245,0.35155,0.042409
aloof,-0.24855,0.43003,-0.45857,0.2613,0.17572,-0.37874,0.46703,0.059946,-0.17217,-0.13486,0.062185,0.36507,-0.37513,0.16329,-0.15125,-0.10728,0.2436,0.045705,-0.14351,-0.063172,0.38866,0.37668,-0.0029637,-0.34955,0.19989,0.042144,-0.028249,-0.038791,0.23223,-0.21613,-0.041305,0.026733,0.23384,0.54528,0.049469,-0.22282,0.043563,0.10163,0.28653,0.082695,0.37768,0.23154,-0.34805,0.21381,-0.24963,-0.23418,-0.22637,0.062472,-0.06614,0.56908,0.61172,-0.11205,-0.12311,0.15902,0.41423,-0.20683,-0.38121,-0.0098858,0.23403,0.48775,-0.42901,0.29368,-0.031145,0.063689,-0.13463,0.02753,-0.044502,0.19514,0.058021,-0.3162,0.20002,-0.13837,-0.24405,-0.063689,-0.058737,-0.13101,-0.13531,0.34092,-0.24752,-0.25973,0.44966,0.15318,-0.12971,-0.12381,0.16895,-0.067116,0.087152,-0.10302,-0.33297,0.023277,-0.014706,-0.1862,0.19988,-0.050861,-0.039098,-0.59758,-0.072378,-0.23962,0.24903,-0.19633,0.40886,0.35145,0.2932,-0.37509,0.22635,-0.2487,-0.0597,-0.38335,0.13682,-0.18513,0.15638,0.10319,0.10365,0.43438,-0.0084695,0.069602,0.030677,0.66461,0.04152,-0.35113,0.14536,-0.10814,-0.23124,-0.23565,-0.17906,-0.10994,0.06815,0.29722,0.18499,0.078095,-0.090614,-0.62004,-0.15831,-0.14645,-0.36958,-0.15246,0.1683,-0.026644,-0.352,-0.1358,-0.37523,0.52671,0.34057,-0.11266,0.11794,0.13705,0.70912,-0.095769,-0.092828,0.15259,0.10316,-0.3228,0.14578,0.17261,-0.39497,-0.10369,-0.16826,0.94584,0.0011617,-0.11012,0.4097,-0.47011,0.044947,0.42584,-0.33213,-0.010258,0.27534,0.79206,-0.063447,-0.063112,-0.215,0.17621,-0.039252,-0.11596,0.16395,0.27438,-0.44038,-0.10924,-0.062902,0.2524,-0.12762,-0.39301,0.0071752,-0.61224,0.058309,0.76556,-0.10574,-0.14603,-0.26152,0.61979,-0.21358,0.21419,-0.78845,0.050569,0.26883,0.053666,-0.37549,0.48006,-0.18441,-0.1017,-0.078946,0.21531,-0.021133,0.2478,-0.0062968,0.30352,-0.63244,0.50842,0.20832,-0.0033065,0.12014,0.075222,0.21853,0.32684,0.42822,0.29466,0.45081,-0.37039,0.20241,-0.39005,0.24077,-0.1384,0.094881,-0.37609,-0.46028,0.38863,0.28266,-0.47221,-0.046729,0.48803,0.26754,0.10607,0.34917,-0.040265,0.20047,-0.045551,0.40386,-0.28255,0.45851,0.35509,0.27267,-0.046696,-0.085416,-0.40762,0.2995,-0.26501,0.35537,0.083523,0.025833,0.082537,-0.23317,0.30034,-0.088784,0.18558,-0.22531,-0.30896,-0.053544,-0.45138,-0.25033,0.20818,0.71294,0.035289,0.42393,-0.16469,-0.32332,-0.059097,0.38362,-0.016437,-0.41026,-0.19103,0.14253,-0.54922,-0.27068,0.51139,0.21839,0.26846,0.036152,0.47178,-0.58341,-0.27624,0.16841,-0.61716,0.386,-0.51796,-0.23311,0.3051,-0.30736,0.68497,-0.27426,-0.64698,-0.40633,-0.22748,0.18591,-0.10953,-0.40671,-0.076268,-0.48856,0.034443,0.50711,0.30274
amiable,0.16748,0.15818,0.19048,-0.29836,-0.44263,0.11239,0.23199,-0.20031,-0.05372,0.041308,0.23201,0.61012,0.20865,0.30177,0.049201,0.017275,0.20291,0.21198,-0.10467,-0.19839,0.25362,0.53745,0.10545,-0.34035,-0.15088,0.2144,-0.22529,0.14553,0.19746,0.21096,0.14323,-0.12749,-0.090351,0.4527,-0.2904,-0.19218,-0.016047,0.073343,0.25826,0.29758,0.047214,0.036126,-0.18969,0.12695,0.0095338,-0.07493,-0.23719,-0.040172,0.37039,-0.038657,0.19101,-0.20268,-0.43163,0.42216,-0.067122,-0.1746,-0.36602,0.013519,0.25207,0.23209,-0.34262,-0.15047,-0.055092,0.1064,-0.21546,-0.3109,-0.30719,0.27692,0.13088,-0.17641,-0.34139,0.27948,-0.17061,0.1051,0.020712,-0.50008,-0.15607,0.22193,0.12521,-0.11917,-0.10617,0.35295,0.58556,-0.22408,0.41559,-0.18804,0.040316,-0.3045,-0.0080242,0.21577,-0.10393,0.11337,0.32086,-0.41141,0.079981,-0.2614,-0.51156,0.11743,0.18331,0.090564,0.11476,0.016617,0.35001,-0.17626,0.30644,0.052189,0.092972,0.17903,-0.022617,-0.55083,-0.039963,-0.029232,0.31782,0.53429,-0.1215,-0.11734,-0.26817,0.21269,-0.27197,-0.9666,0.38922,-0.17405,-0.086815,-0.15686,-0.31199,0.096922,0.49702,-0.080588,0.12536,-0.028341,-0.18359,-0.11901,-0.41432,-0.088792,-0.5742,-0.28976,-0.10705,-0.073697,-0.27029,0.020591,0.028567,0.41282,-0.07482,0.22844,-0.21241,0.12536,0.26657,-0.071971,-0.2942,-0.27873,-0.11492,-0.56216,0.67781,0.11349,-0.38771,-0.43538,-0.065614,0.79179,-0.018135,-0.40628,0.07586,-0.48233,0.035576,0.40461,-0.031053,-0.074033,0.055559,0.57381,0.033212,0.24622,-0.072584,0.29392,0.13047,-0.16949,-0.078912,0.33075,-0.28948,-0.20705,0.069139,0.24782,-0.25571,0.012986,0.071573,-0.15783,0.19122,0.5095,0.080642,-0.019889,-0.0087599,0.67563,0.25343,0.41971,-0.84667,-0.2965,0.31345,0.041564,0.10445,0.46268,-0.49907,0.17813,0.021306,0.050315,0.0064521,-0.0084669,-0.0023478,0.05104,-0.035586,0.3351,0.069952,-0.021856,0.020734,0.37008,-0.11543,0.23232,0.47675,0.19029,0.35745,-0.82897,-0.1384,0.048109,0.0062848,0.12749,0.18252,-0.021908,-0.00012072,0.38745,0.4379,-0.72945,0.013217,0.49857,0.12943,-0.076888,0.53738,0.017714,-0.040494,0.13891,0.14376,0.13455,0.114,0.28746,0.048114,0.1712,-0.3438,0.058146,0.14147,0.019219,0.34718,0.00015514,0.18575,0.041611,0.27086,0.033794,-0.31243,0.045279,-0.62375,-0.060942,0.14135,-0.28417,-0.56104,-0.11012,0.44432,-0.21379,0.52622,-0.33734,-0.24084,0.16838,0.49975,-0.17375,-0.44516,-0.38903,0.29242,0.36743,-0.059029,0.084819,-0.026954,0.02927,0.23108,-0.26752,-0.35413,-0.2751,0.20096,-0.74542,0.51663,-0.60863,-0.44171,0.4208,-0.16539,0.63177,-0.31242,-0.23187,-0.3196,-0.087386,0.55435,-0.072417,-0.040195,-0.073468,0.07426,-0.090488,0.36794,0.019309
angry,-0.15424,0.26844,-0.63931,0.16337,0.0039639,-0.38862,0.060976,0.23212,-0.20963,0.31888,-0.21602,0.19778,0.1908,0.22952,-0.13303,0.19736,0.38158,-0.011216,-0.25487,-0.44164,0.58157,0.44655,0.025132,-0.46998,-0.020573,-0.31767,0.35441,0.43161,-0.27008,-0.010626,-0.29322,-0.21609,0.22963,0.15752,-0.53617,-0.21421,-0.064026,-0.14647,-0.49398,0.14549,0.037314,0.28596,-0.10192,-0.2503,-0.073862,-0.20538,-0.23183,-0.079107,-0.077401,0.50381,0.14191,-0.1067,0.42207,0.46837,0.019324,-0.1841,-0.16645,-0.28906,-0.22064,0.39255,0.039767,-0.3612,0.26351,0.092295,-0.15592,0.026648,-0.1087,0.53228,-0.27126,0.68205,-0.010598,0.52671,-0.1863,0.11382,0.053848,-0.028915,-0.28792,0.23395,-0.033468,-0.16286,0.17005,0.038038,0.25621,-0.14143,0.13526,-0.36468,-0.28718,-0.24115,0.03617,0.16402,0.23261,0.028121,0.35121,-0.27223,-0.19175,-0.39914,0.064799,-0.2741,0.35773,-0.19096,-0.21477,0.14826,0.19471,-0.33349,0.10958,-0.034469,0.31198,-0.73471,-0.26667,-0.40072,0.27903,-0.17042,0.22431,-0.043268,-0.35334,-0.027613,-0.23453,0.65035,-0.1303,-0.36404,-0.14726,0.13017,-0.1886,0.11289,-0.11631,-0.28274,0.010149,-0.12407,0.21014,0.2315,0.068116,-0.54899,-0.27478,-0.25499,-0.1611,0.10283,-0.081427,-0.50256,0.12383,-0.12038,-0.085087,-0.21331,0.1207,-0.03375,0.46431,-0.047988,0.30423,0.026124,-0.43981,-0.095213,-0.12179,0.13861,-0.011181,0.37216,-0.52375,-0.21742,-0.41423,0.77831,-0.12508,-0.19445,0.10261,-0.09471,0.149,0.44182,-0.14046,-0.12149,0.44449,-0.047875,-0.13479,-0.13876,0.48427,-0.1774,0.019539,-0.069647,0.07396,-0.17514,-0.68283,-0.078542,0.3174,0.23175,-0.12874,-0.20971,-0.10346,-0.0054526,0.11665,0.26742,0.1512,0.17186,-0.0026365,0.040981,-0.20344,0.046715,-0.25778,-0.028006,0.19448,-0.078774,-0.016758,0.2377,0.48344,0.039673,-0.014697,0.12915,0.10465,0.00061096,0.44255,0.662,-0.28804,0.35722,0.57478,0.068601,0.44425,0.19595,-0.2303,0.13351,0.24305,0.57178,0.28752,-0.052857,-0.16017,-0.15582,0.19518,-0.0074929,0.0072259,-0.48623,-0.46286,-0.23102,0.069898,-0.61377,-0.20132,0.2902,0.13971,0.091996,0.13896,0.18905,0.027218,0.13078,0.19378,0.03849,0.35302,0.24498,-0.11304,0.27131,-0.1312,-0.036751,0.38567,-0.46625,0.28029,0.26338,0.3066,-0.27757,0.10256,-0.13384,-0.012611,-0.043502,-0.34663,-0.17709,0.051631,0.024423,-0.13029,0.2587,0.2904,-0.17558,-0.01003,0.58697,-0.30578,0.29787,0.23993,0.010525,-0.093826,0.4218,0.26758,-0.30987,0.19259,0.34372,-0.23804,0.33971,0.41775,0.37614,0.22325,-0.32375,0.69554,-0.34989,0.47639,0.0299,-0.5077,-0.10975,-0.30693,0.46098,-0.19244,-0.3048,-0.51318,0.25783,0.076189,-0.20237,0.084183,-0.095759,-0.17007,0.057197,0.39466,0.090469
animated,0.11813,0.34858,0.026539,-0.2699,-0.1262,0.13845,-0.6131,-0.035971,0.21,-0.080834,0.24443,-0.23572,0.24026,0.46682,-0.4049,0.065028,-0.18363,-0.1925,-0.47412,-0.38001,0.11362,-0.2919,-0.080711,-0.0077752,-0.62458,0.23995,-0.28991,-0.2371,-0.39229,-0.14984,0.36078,0.16282,-0.57308,0.36077,-0.42492,-0.40732,0.086459,0.18405,-0.099184,0.10726,0.026163,0.1383,-0.58706,-0.61331,-0.20787,-0.21678,0.033979,-0.48227,0.010454,0.65053,0.15404,-0.36408,-0.10995,0.49331,0.33497,-0.020431,0.0015196,0.011748,-0.019215,0.27213,-0.090903,-0.16325,-0.18526,-0.12696,0.28722,-0.0224,0.14807,0.22404,0.022813,-0.24755,-0.30342,0.29237,0.39266,-0.031757,-0.077372,-0.33121,-0.19613,0.34281,0.23416,0.14142,0.087142,-0.22721,0.42172,-0.073271,0.1106,-0.78522,-0.093379,-0.14391,-0.050424,0.03713,0.10104,-0.5446,0.41088,-0.57463,-0.42073,0.10296,0.20173,-0.10455,0.25764,-0.36811,0.19404,0.37605,0.21274,-0.39521,-0.30854,0.49191,-0.047143,0.13693,0.20431,-0.072142,0.012385,-0.0057036,-0.40835,-0.55553,-0.051332,-0.13141,0.16667,0.34272,0.031736,-0.22162,0.40601,0.69952,-0.038266,-0.051266,-0.29742,-0.84608,0.47787,-0.043711,0.24674,0.11767,-0.18426,-0.075991,-0.70415,-0.3955,-0.37358,0.098562,0.19567,-0.053153,-0.101,0.24179,-0.13886,0.027595,-0.1041,0.1505,0.1054,-0.11791,-0.0078198,-0.041247,-0.71819,-0.36987,-0.20184,-0.32761,0.21884,0.27101,-0.47629,-0.071553,0.19338,0.20073,0.36512,0.20101,0.070113,-0.22438,-0.0035252,0.51586,0.045269,-0.13737,-0.35916,0.22922,0.40128,0.35661,0.22794,0.36922,-0.079072,-0.17176,-0.02821,-0.11944,-0.2297,-0.26209,0.17688,0.46762,-0.17321,-0.095927,0.060208,0.36252,-0.45338,0.051025,0.27756,0.062481,0.43768,-0.20261,0.048747,-0.057383,-0.59368,-0.13572,-0.20659,-0.31701,-0.24875,0.21266,-0.46899,-0.38869,0.50092,0.09745,-0.14004,-0.12589,0.18616,-0.0048496,0.36556,-0.058613,0.19584,-0.16272,0.018108,0.044554,0.49884,0.34467,0.39827,0.033878,0.069483,-0.096904,-0.25986,0.2562,0.063245,-0.27201,0.53037,-0.083426,-0.78594,-0.2791,0.55644,-0.48339,0.22582,-0.2804,-0.42072,0.52608,1.1708,-0.10897,-0.16951,0.2497,0.37522,-0.090108,0.012227,-0.10852,-0.0057635,-0.15595,0.34322,0.07127,0.13952,-0.037313,0.032318,-0.19363,-0.11383,0.15997,0.3491,-0.10517,-0.01046,-0.15455,0.18529,0.47549,0.12976,-0.22792,0.053863,0.025495,0.13053,0.18317,0.27182,-0.13334,-0.20367,-0.20851,0.54672,-0.071317,0.18987,-0.55367,0.18916,0.13,-0.087151,0.41853,0.46067,-0.59052,-0.14738,-0.17199,0.10199,-0.062735,0.022146,-0.40584,0.55618,-0.28993,-0.40025,-0.14987,-0.19707,0.039441,-0.3315,-0.29317,-0.32592,0.3281,0.017808,-0.1741,-0.039406,0.0088063,0.49771,-0.30682,0.43465,0.23631
apathetic,-0.37258,0.13543,-0.39593,0.29465,-0.20252,-0.26565,0.231,0.11508,0.13399,-0.10647,-0.088737,0.41153,0.07821,0.36964,-0.04476,-0.016932,0.20218,-0.093487,-0.17518,-0.41207,0.14857,0.67195,-0.06871,-0.47234,-0.15558,0.088222,0.19917,0.094057,0.10319,-0.28946,0.22338,-0.2343,0.14975,0.46529,-0.31339,0.0036967,0.12147,0.20773,0.039811,0.2904,0.14235,0.28561,-0.17373,-0.45803,-0.28561,-0.024581,-0.0060783,0.093985,-0.046465,0.51718,0.30169,0.037927,-0.12035,0.51661,0.029458,0.013683,-0.056159,-0.087642,-0.10633,0.3959,-0.17648,-0.19016,0.058202,0.19911,-0.40125,0.13437,0.049389,0.30614,0.0077583,0.00070844,-0.062107,0.17673,-0.26125,-0.0055697,0.013345,-0.11531,0.044655,0.21612,0.10737,-0.074662,0.16685,0.018231,0.43196,-0.16243,0.28823,-0.30769,0.023191,-0.23857,-0.28646,0.070861,0.2157,-0.030606,0.026408,-0.016549,-0.085425,-0.045355,0.084628,-0.055073,0.09795,-0.19475,-0.2872,0.36204,0.43497,0.18002,0.29177,-0.11396,0.024509,-0.48057,0.27826,-0.33711,0.10855,-0.162,-0.14267,0.12494,0.091963,-0.010139,-0.085903,0.39494,0.19168,-0.1713,0.027516,0.1135,0.51058,-0.237,-0.11649,0.33688,0.60097,0.086753,0.25089,0.55117,-0.065308,-0.29674,-0.040904,0.29824,-0.35736,0.35666,0.12218,-0.37442,-0.20754,-0.28582,-0.29529,0.49622,0.15851,-0.0789,0.15655,-0.009522,-0.023842,-0.1301,-0.31251,0.0026578,0.1952,-0.46235,0.13633,0.020732,-0.64022,-0.27981,-0.34779,0.48982,0.28178,-0.099221,0.21103,-0.28827,0.068416,0.41862,-0.30518,0.061386,0.21782,0.2194,-0.037517,0.10987,0.1025,0.062628,-0.17228,-0.40595,0.076237,0.12054,-0.0035342,0.12809,-0.25459,0.28481,-0.26139,-0.52332,-0.19533,-0.35347,0.15577,0.56886,-9.2341e-05,0.11793,0.41698,0.10094,-0.10154,0.28018,-0.55238,0.22861,0.19933,-0.01948,-0.082181,-0.13404,-0.006835,0.034325,-0.15402,0.23631,-0.29908,0.21685,0.71732,0.28182,-0.27597,0.46522,0.14776,0.43697,0.18364,-0.24381,0.032844,-0.13278,0.2529,0.56133,-0.04494,-0.37348,-0.05011,-0.29917,0.3391,-0.14993,-0.20469,-0.2854,-0.21843,0.15564,-0.19122,-0.48624,0.14066,0.42473,0.34024,0.073642,0.13008,-0.16009,0.45353,0.13996,0.27644,0.16538,0.28367,0.18321,0.34925,0.16005,0.02634,-0.30744,0.20208,-0.42191,0.2667,-0.10528,0.20117,0.00052874,-0.15753,0.19053,-0.11204,-0.010473,-0.28686,-0.18554,0.019779,-0.25917,-0.45758,0.41511,0.60466,-0.06346,0.43777,0.09249,-0.11053,0.30066,0.44639,0.29023,-0.6562,0.020822,0.027999,-0.5776,-0.023027,0.2247,-0.016783,0.22742,0.3759,-0.014928,-0.21059,0.0041897,0.21167,-0.9861,0.28416,-0.25369,-0.35689,-0.10427,-0.014224,0.49572,-0.34456,-0.60578,0.038034,-0.18154,0.087359,-0.15312,-0.19022,-0.22021,0.13406,0.057165,0.36875,0.24522
ardent,0.18802,-0.20406,-0.26406,-0.24411,-0.00093545,0.10786,0.20718,-0.26313,0.061496,-0.23085,0.33915,0.26359,-0.1528,-0.13235,0.026207,0.47001,0.0036243,-0.3285,0.27056,0.060886,0.57706,0.58391,-0.048857,-0.29245,-0.025129,-0.15974,-0.027851,-0.1469,-0.32042,-0.099342,-0.0074735,-0.13483,-0.21992,0.29659,-0.30837,-0.033938,-0.25024,-0.33554,-0.52491,0.28345,0.085364,0.21719,0.30849,-0.1306,-0.50344,-0.47803,0.016279,-0.51313,0.17522,0.052971,0.33299,-0.022946,-0.22305,0.24407,-0.16655,-0.3764,-0.52592,-0.4964,-0.053144,0.35791,-0.51301,0.015629,-0.022565,0.066117,0.4295,-0.19985,-0.19721,-0.046018,7.8377e-05,-0.092866,0.032762,0.1676,-0.2154,-0.097804,-0.17812,0.05457,0.049698,0.45064,-0.26624,0.19437,0.36223,0.19614,-0.11687,-0.061036,0.14806,-0.47433,0.35891,-0.029927,-0.0072211,-0.037944,0.16783,0.019118,-0.22748,-0.041112,0.05246,-0.32165,-0.14799,-0.080422,-0.19631,0.16761,0.137,0.38536,0.040482,0.24307,0.14285,0.33379,-0.58864,-0.091114,0.1104,-0.093935,0.13087,0.063899,0.16103,-0.0395,-0.35037,-0.085852,-0.2297,0.33382,-0.086332,-0.40255,0.25466,0.023175,0.41839,0.10668,-0.44806,-0.53972,0.0068232,-0.23959,-0.093309,0.1374,0.12643,-0.15087,0.17227,0.26321,-0.43635,0.10153,-0.21435,0.0014627,-0.36224,-0.19471,0.053008,0.23196,-0.49772,0.099618,0.011525,-0.20998,0.38851,0.30083,-0.26747,-0.39301,-0.3916,0.1762,0.54101,-0.10276,-0.35573,-0.42959,-0.033362,0.57896,-0.022034,-0.071927,-0.10913,-0.22222,0.24111,0.36724,-0.68311,-0.37433,0.58926,0.24084,-0.16809,-0.3054,-0.0055185,0.35462,-0.077739,-0.23783,0.11633,0.67692,-0.41257,-0.5139,0.36834,-0.049962,-0.49349,-0.12083,-0.6642,-0.21113,-0.45957,0.56348,-0.088425,0.37914,0.1289,0.58531,-0.15812,0.3616,-0.12529,0.16193,0.1732,-0.39853,-0.26966,0.34087,-0.2888,-0.066133,-0.13424,0.49904,0.029404,0.15316,0.038626,0.108,-0.51283,0.033972,0.67423,-0.50074,-0.28281,0.68848,-0.28387,0.19538,0.27418,0.31318,0.085283,-0.32588,-0.36197,-0.069252,-0.0024421,-0.15465,0.15822,-0.18104,-0.040912,0.14227,-0.1267,-0.14603,0.29339,0.40431,0.30725,-0.10796,0.39625,-0.10152,-0.44193,0.24713,0.38372,-0.0065026,0.21718,-0.083735,-0.12833,0.26978,-0.27329,-0.16823,0.48948,-0.15101,0.076827,0.20667,-0.15735,0.36313,0.13984,-0.044776,-0.011348,0.45388,-0.1486,-0.46048,-0.03444,-0.22507,-0.30488,0.11361,0.46489,-0.38654,0.56501,0.28667,-0.45863,0.37891,-0.24937,-0.1957,-0.42255,-0.079022,0.099291,-0.014829,0.19504,0.19487,0.048898,0.067939,0.70938,-0.16636,0.03184,-0.49097,0.64817,-0.60073,-0.23565,-0.63014,-0.67219,0.12257,-0.60962,0.70724,-0.069247,-0.7597,-0.73004,-0.029942,0.23643,-0.060073,-0.044525,-0.36459,-0.037438,0.35635,0.44005,-0.15033
austere,-0.077584,-0.029702,0.037381,-0.20043,0.073618,-0.11928,-0.044816,0.19792,-0.030658,-0.41038,0.28711,0.30643,-0.38774,-0.34426,0.44262,-0.2554,-0.073068,0.11393,-0.23021,0.43102,0.1094,0.52462,-0.11767,-0.095672,0.73633,0.19818,0.0086407,-0.072231,0.0011741,-0.603,-0.14608,0.13869,0.051012,0.77037,0.30635,0.041777,0.31101,0.15579,-0.034872,-0.079822,0.31198,-0.035833,-0.45221,0.02156,-0.3722,-0.19805,0.39973,-0.33435,0.52056,0.038331,0.36585,0.039636,-0.58195,0.041317,-0.18683,-0.32495,-0.10766,0.37645,0.084898,0.11038,-0.81063,-0.016982,0.22273,0.37278,0.050519,-0.035315,0.04814,-0.14514,0.21211,0.013451,0.015086,-0.010724,-0.13577,0.40416,-0.03907,-0.0045543,-0.53354,0.15973,-0.062981,0.01731,-0.22724,0.025714,-0.22707,-0.18462,0.15324,0.38224,0.0021623,-0.0086246,0.061478,-0.12027,0.27702,-0.18964,0.068782,-0.12722,0.15042,-0.091349,-0.48746,-0.27645,0.1563,-0.35697,0.22403,0.2868,0.36082,0.013599,-0.28591,0.099065,-0.36827,0.070906,0.39023,-0.5468,0.5601,0.0034411,0.45162,-0.017826,-0.36411,0.4484,0.67678,0.67894,-0.12451,-0.47153,0.46788,0.2747,-0.36189,0.31067,0.0036363,-0.0051414,0.39206,-0.10527,0.14902,0.35899,0.27997,-0.70219,-0.40233,0.49851,-0.086318,-0.3957,0.025544,0.35578,-0.26859,0.23902,-0.070792,0.087813,0.03008,0.21596,0.84089,-0.30151,-0.0057618,0.099146,-0.081438,0.32821,-0.22318,0.0084892,0.59974,0.46217,-0.69218,-0.80177,0.045929,0.83928,0.33203,-0.54201,0.03146,-0.10699,-0.10448,0.4212,-0.19173,0.063899,0.36063,0.75396,0.082495,-0.04098,0.59913,0.24112,0.25513,-0.14287,-0.081714,0.089491,-0.25347,-0.1746,0.30385,0.4561,-0.14071,-0.6833,-0.46463,-0.058207,-0.18698,0.58649,-0.071578,0.16314,0.29037,0.32005,-0.12919,0.046076,-0.18305,0.21292,0.00045842,-0.076305,0.025864,0.034368,-0.21201,-0.15637,0.12178,0.58618,-0.00094376,0.25605,0.14847,0.33494,0.0031743,0.21852,-0.031593,0.12707,0.16425,0.41317,0.03659,-0.28197,0.17387,0.24742,0.082958,-0.41945,-0.47066,-0.17083,0.057109,-0.29736,-0.26282,0.037574,-0.17177,0.23366,0.11678,0.090606,-0.12359,-0.0072853,0.40453,0.057048,0.18373,0.27796,0.22858,-0.18034,0.33543,-0.1904,0.069652,0.17509,0.25218,0.05517,0.0089068,-0.088667,0.086775,0.18326,0.068003,0.15573,-0.16094,-0.58004,0.1513,-0.47394,0.26701,-0.055667,-0.28187,-0.32508,-0.066296,0.12967,-0.50096,-0.34286,0.64081,-0.096608,-0.14778,-0.2596,-0.23208,0.36627,0.42589,0.10637,-0.60003,-0.28989,-0.015759,-0.23001,-0.32422,0.78128,-0.21922,-0.19505,-0.024816,0.1967,-0.34331,-0.13289,0.13451,-0.2762,0.042825,-0.50135,-0.5095,0.29964,-0.42592,0.58702,-0.29316,-0.49627,-0.098829,-0.26259,-0.1621,-0.028953,-0.82776,-0.1079,0.10889,0.10643,0.47311,-0.11191
benevolent,-0.01717,-0.0043545,-0.24435,0.41278,0.099084,-0.36342,0.25817,-0.44232,0.40803,0.060263,0.047255,0.17477,-0.085165,0.1864,-0.022323,-0.028514,-0.12544,-0.27564,-0.2467,-0.37251,0.20116,0.33987,-0.036416,-0.0036514,-0.21171,0.092727,-0.055011,0.18338,-0.048358,0.17697,0.068776,0.010713,-0.20122,0.020602,-0.026206,-0.18809,0.063364,-0.1052,-0.018605,0.10649,0.56972,0.021289,0.2843,-0.31218,-0.14224,-0.23217,0.043185,-0.0067439,-0.1257,0.064009,-0.084342,-0.21326,-0.017755,0.32409,-0.065945,-0.27441,-0.35869,-0.11118,-0.032865,0.10225,-0.4476,-0.58407,-0.23394,0.27872,0.19425,-0.42848,0.11703,-0.0092926,0.090633,0.31042,0.2177,-0.33978,-0.47102,0.25033,0.34738,0.15393,0.050942,0.043975,-0.031044,0.044581,-0.0046193,-0.13248,0.061576,0.10931,0.30911,-0.33331,-0.15076,-0.44972,-0.23396,0.0028834,0.2571,-0.055202,0.038088,-0.32214,0.25402,-0.16684,-0.26121,0.43055,-0.11703,0.090025,0.020378,0.14381,0.089022,-0.43069,0.464,0.61468,-0.15126,0.15494,-0.17151,-0.29896,0.15539,-0.22855,0.435,0.49623,-0.07578,-0.39086,0.33249,0.47337,-0.27137,-0.51454,0.39953,0.084792,-0.31533,-0.28159,-0.24132,-0.17869,0.6339,-0.27374,-0.015803,0.016035,-0.23011,-0.45425,-0.30803,0.36334,-0.55764,0.037925,0.038468,0.020147,0.16929,-0.45167,-0.48245,0.23133,-0.083177,0.063235,0.28188,-0.12694,-0.11454,-0.35322,0.3252,-0.030696,-0.17281,-0.4364,0.36832,-0.096609,-0.5531,0.033143,-0.31338,0.36041,0.16961,-0.34673,0.062694,-0.51554,0.26062,0.36845,-0.45492,-0.22165,0.062507,0.66567,0.01337,0.33141,-0.1164,0.40233,0.0021667,-0.025614,0.24315,0.084805,0.070003,-0.17525,0.21608,0.39285,-0.1009,-0.14037,-0.14789,0.33825,-0.060421,0.29419,0.51317,0.034174,-0.12369,0.20109,-0.26656,0.48373,-0.374,0.3392,0.056797,-0.38502,-0.099102,0.59786,-0.32279,-0.0382,0.12775,0.57813,0.098763,-0.047176,-0.16347,-0.051985,-0.19072,0.49513,0.67469,0.20217,0.11218,0.37485,-0.37899,0.12058,0.59361,0.42062,0.43038,-0.37686,-0.073014,-0.25773,0.11491,-0.011899,-0.11068,-0.047842,-0.26144,0.15324,0.18347,-0.14002,0.1328,0.32951,-0.23037,0.45755,0.49856,-0.13805,-0.1084,0.082851,0.3079,0.065232,-0.093208,0.1141,-0.017366,0.31394,-0.17874,-0.22777,0.19799,-0.517,0.18051,-0.32965,-0.14461,0.10247,-0.020153,0.16977,-0.016254,-0.02013,0.21256,0.61893,0.55705,-0.31157,-0.10629,-0.019527,0.68784,-0.32955,0.74607,-0.31791,-0.46773,-0.056454,0.54594,-0.18918,-0.44015,-0.52579,-0.44929,-0.050182,0.17318,0.066311,0.25119,0.12652,0.19077,-0.34237,-0.48272,-0.017826,0.38624,-0.51107,0.33392,-0.39807,-0.12481,0.30119,-0.28148,0.36896,-0.19168,0.040877,-0.46438,-0.24238,0.30304,-0.018863,-0.24998,-0.50638,0.25378,-0.24695,0.33659,-0.47736
benign,-0.19925,0.3406,-0.36285,0.30788,0.24106,-0.39922,-0.51575,-0.42891,0.057285,-0.4917,0.053859,0.27416,-0.10502,0.069202,-0.16498,-0.1504,0.11421,-0.11042,-0.2391,-0.36296,0.57845,0.66299,-0.46521,-0.51307,0.31391,0.39931,0.057055,0.22117,0.038076,-0.16784,0.31829,-0.19448,-0.18186,0.082019,-0.10955,-0.31297,0.34028,0.092998,-0.24598,-0.0089452,0.29356,0.15897,0.1591,-0.10529,-0.057423,-0.19473,-0.137,-0.052424,-0.17536,-0.01458,-0.15389,-0.33276,-0.62082,0.3423,0.15354,-0.16186,-0.59521,-0.026123,-0.33896,0.082592,-0.47707,-0.63214,0.2981,0.68884,0.57778,-0.33096,-0.27959,-0.0059763,-0.042223,0.27204,0.067142,-0.44694,-0.42881,-0.38746,-0.051351,-0.091875,0.11219,-0.42238,0.045669,-0.27356,0.3551,0.22789,0.022198,0.18818,0.38407,-0.40347,-0.2083,-0.24941,-0.33165,0.19687,0.74195,-0.41325,0.2785,-0.43977,-0.48342,-0.33353,0.075453,0.21338,0.3072,-0.30519,0.15798,0.067282,0.33941,-0.48465,0.13789,0.34896,-0.18013,-0.02555,-0.18989,-0.29047,0.27041,-0.17195,0.20377,0.060005,0.28026,-0.59664,-0.2028,0.13008,-0.064935,-0.34785,0.21621,0.038227,-0.13909,0.20974,-0.13727,0.0012904,0.5633,0.13469,-0.27378,0.072229,0.033542,-0.069172,-0.47732,0.42179,-0.5396,-0.26437,-0.038075,-0.05168,0.1109,-0.37704,-0.29348,0.75179,-0.35455,0.17079,0.41699,-0.16032,0.016359,0.02293,0.45515,-0.1975,0.22313,-0.22226,0.46932,-0.12463,-0.42692,-0.070951,-0.39832,0.30948,0.13801,-0.61858,0.65965,-0.3977,0.19356,-0.24888,-0.12573,0.011404,-0.43973,0.39906,0.051045,0.34243,-0.13649,0.47431,-0.43095,-0.25264,-0.20014,-0.051003,0.19713,0.21801,-0.086016,-0.050209,-0.17046,-0.29248,-0.26561,0.67567,0.056666,0.018991,-0.40952,-0.15488,0.23973,0.67415,0.038396,0.48012,-0.29216,0.3606,-0.36117,-0.038545,-0.20944,0.17779,-0.37186,0.043922,-0.25772,0.43907,0.071927,-0.24981,0.078888,0.11023,-0.47958,0.54499,-0.29384,0.27243,0.088813,0.66599,-0.034116,0.2702,0.30333,0.12872,0.30615,-0.7644,-0.12964,-0.14275,-0.46137,0.28238,-0.21319,0.4322,-0.12437,0.18444,0.22182,-0.14477,0.023941,0.20532,-0.093883,0.79679,0.46008,-0.32783,-0.25082,-0.029044,0.35202,-0.10756,0.20231,0.14572,0.20453,0.38907,-0.4448,-0.083704,-0.063672,-0.43128,-0.078847,0.26836,-0.42294,0.34728,-0.2876,-0.35025,-0.034428,0.13239,-0.068957,0.35003,0.42091,0.072551,-0.24556,0.14384,0.58868,-0.0020903,0.39808,0.13156,0.27645,0.016045,0.06565,-0.28396,-0.47837,-0.33521,-0.33821,0.0014684,0.11953,0.16882,-0.12797,0.45547,0.17854,0.24695,-0.17804,-0.33336,0.29893,-0.35614,0.57229,-0.37429,0.023289,-0.030143,-0.021923,0.34525,-0.040037,0.19975,-0.25557,0.010342,0.3047,0.14568,-0.096598,0.050199,0.32818,-0.32344,-0.038972,-0.22423
boiling,-0.40683,-0.39663,-0.13165,0.36938,-0.33329,-0.27737,-0.00053456,-0.08618,0.33989,0.34039,-0.12258,-0.37663,-0.067998,-0.032628,0.64364,0.057968,-0.10277,0.10478,-0.74838,-0.063428,0.60071,0.41439,-0.090863,-0.13968,0.11056,-0.099963,0.49159,0.01768,-0.10844,-0.1247,0.51453,0.031196,-0.086087,-0.01067,-0.69563,0.33936,0.071308,0.041519,0.32928,0.3896,0.34375,0.65755,0.085034,0.041474,0.20533,-0.078112,0.35939,-0.49751,-0.32512,0.37752,0.49619,-0.026457,0.23095,-0.005386,0.50485,-0.43842,0.044339,0.017379,-0.44781,-0.10639,-0.18096,-0.21942,0.65315,0.41395,-0.32421,0.65585,0.80193,0.092316,-0.3795,0.32978,0.06219,0.44517,-0.21629,-0.24245,-0.5365,0.11166,0.54077,-0.45524,-0.26332,-0.053174,-0.1109,0.11067,0.044455,0.0021426,-0.034141,-0.2559,0.24343,-0.16773,0.10277,-0.14313,-0.15301,-0.41029,0.050591,0.16585,-0.68171,-0.10455,-0.20803,-0.073634,-0.031413,-0.18543,0.34711,0.90661,-0.42833,-0.030449,0.24602,0.21344,0.21799,-0.088377,0.012912,-0.69014,0.23117,0.024525,-0.05885,-0.57328,-0.91446,0.11801,0.10318,0.079243,0.068927,-0.18176,-0.34702,0.43748,0.048256,0.50876,-0.043525,-0.84801,-0.049313,0.1681,-0.25481,-0.31449,0.0098652,-0.07635,-0.45666,0.3273,-0.36047,-0.11281,-0.41661,0.098628,-0.15979,0.29472,0.24325,-0.36964,0.15104,0.054111,-0.29238,0.26799,0.33402,0.10481,-0.14286,-0.21301,-0.45262,0.10003,0.01114,0.63547,0.092198,-0.016143,-0.26725,0.17525,-0.55575,-0.5432,0.42636,-0.40997,0.43892,0.2135,-0.23742,0.13182,-0.13108,0.3577,0.62277,0.17978,0.27557,-0.090766,-0.15808,-0.8108,-0.32434,-0.0099163,-0.44526,-0.35253,0.90702,-0.48115,0.60541,-0.64442,-0.50193,0.23123,-0.0082111,-0.043978,0.09783,-0.086688,0.0058675,0.72185,0.20105,-0.45013,-0.59367,0.11557,0.0096226,0.013119,-0.33902,-0.028091,0.050507,-0.00031837,-0.33212,-0.0052318,0.12238,0.63802,0.009046,0.24384,0.19931,-0.044629,-0.094944,-0.23037,0.22145,-0.60468,-0.050361,0.43432,-0.2459,-0.027432,-0.062747,0.0039463,-0.10005,-0.0079215,-0.12947,0.17255,-0.15204,0.30241,-0.26987,-0.1082,-0.040539,0.12909,-0.071642,0.4175,0.024022,0.15542,0.24782,-0.54751,0.013642,-0.0086535,-0.078422,0.19802,0.25728,0.37521,-0.081557,0.086314,-0.010591,-0.38665,0.82357,-0.086811,0.087739,0.44422,0.28528,-0.58925,-0.18354,-0.43983,-0.39639,-0.027125,-0.32241,-0.32704,-0.31371,0.098202,-0.22285,0.41189,0.30429,-0.24957,0.25472,0.55071,0.26467,-0.20997,0.47038,0.11724,0.48364,-0.027137,-0.21288,0.26607,0.098487,-0.012788,0.32081,-0.42932,0.3992,0.35139,-0.36963,-0.21998,0.67797,-0.80464,0.015351,-0.12722,-0.022862,0.37652,0.32997,0.85588,-0.075018,-0.095492,-0.26654,-0.10246,-0.076332,0.24043,-0.10296,-0.0973,0.05008,-0.27139,0.35936,0.051247
calm,0.034686,0.21181,-0.25985,0.019893,0.027604,-0.26985,0.112,-0.092958,-0.067898,-0.0079693,-0.16495,0.19602,0.23714,0.32789,0.40284,0.30557,-0.061955,0.3416,-0.29766,-0.093196,0.55174,0.85858,-0.046408,0.065942,0.18079,0.1443,0.057628,-0.13465,0.35518,0.15342,-0.033821,0.28269,0.057813,0.39233,-0.1461,-0.26977,0.24908,0.38284,0.038412,0.25752,0.26285,0.36932,0.020391,0.021045,-0.21226,-0.12805,-0.12708,-0.1916,-0.058042,-0.004876,0.18274,-0.23789,0.19804,0.4855,0.31133,-0.6233,-0.4124,0.41991,0.30863,0.080185,-0.54237,-0.19812,0.21666,0.30692,-0.2724,-0.0068384,0.53439,-0.044019,0.1428,0.21242,0.17012,0.059364,-0.46255,-0.40429,-0.05942,-0.21335,-0.36223,0.070814,-0.46429,0.12141,0.52757,0.25043,0.10289,-0.05732,0.03766,0.018358,0.033787,-0.33733,-0.20262,0.028709,0.58378,-0.37935,0.48386,-0.54981,0.10548,-0.21516,-0.32796,-0.14679,0.42042,-0.20341,0.15868,0.28968,0.47721,-0.40476,0.19816,0.056609,0.36905,-0.22765,-0.15359,-0.57924,0.069666,-0.04609,0.12108,-0.3892,-0.43319,-0.020305,-0.26963,0.094776,0.22364,-1.1097,-0.042067,0.20479,-0.26529,-0.29041,-0.39515,-0.084778,0.32047,0.13852,0.25263,0.38414,0.11808,-0.46379,-0.68562,-0.16792,-0.42795,0.3218,-0.3936,-0.2699,-0.096513,0.41954,-0.022927,-0.1989,0.041767,0.41945,-0.11311,0.072348,0.30447,0.12075,-0.33105,0.057419,0.20445,-0.46988,-0.38063,0.32633,-0.24901,-0.20063,-0.29845,0.89423,0.10608,0.0086259,0.25009,-0.28533,-0.093193,0.47907,-0.47854,0.21983,-0.19727,0.55948,0.11302,-0.31366,-0.39374,0.28976,-0.056613,-0.17801,-0.37198,0.27299,-0.017817,-0.18902,-0.076401,0.045746,0.064037,0.072598,-0.44583,-0.11211,-0.18399,0.47761,-0.2835,0.081767,0.28662,0.36894,0.1769,0.31357,-0.69221,-0.24847,-0.04151,-0.21135,-0.29613,-0.031443,0.07684,0.15005,-0.16112,0.20993,0.10815,0.44315,0.24175,-0.2914,-0.13356,0.21048,0.57161,-0.004782,0.13798,0.12353,0.096369,0.057581,0.36151,0.20918,0.65869,0.006369,-0.043524,0.085612,0.001114,-0.15817,-0.050876,-0.3518,-0.53257,0.45817,-0.057444,-0.39451,0.0057018,0.58592,0.24833,0.39324,0.19614,-0.26289,-0.067965,0.38294,-0.039448,-0.38044,0.32753,0.66381,0.38391,-0.22832,-0.51119,-0.28448,0.34002,-0.64996,-0.35754,0.025394,0.25857,-0.34882,-0.05973,-0.18988,-0.11787,-0.18482,-0.069614,-0.32798,-0.24257,-0.029923,-0.27789,0.44599,0.66924,-0.50503,-0.024663,0.025264,-0.53787,0.17183,0.22534,-0.45981,0.28955,0.018131,0.16518,-0.8116,-0.0559,0.26146,0.037061,-0.19403,0.094225,0.32627,-0.30566,-0.739,0.28831,-0.087259,-0.014274,-0.1344,-0.21036,0.00918,-0.58265,0.62355,-0.23793,-0.37684,-0.23883,-0.26722,-0.063647,0.05761,-0.096425,-0.39789,-0.2145,0.38612,0.3769,-0.37442
caring,-0.8228,0.0057811,-0.39065,0.24995,-0.38911,0.24132,0.012411,0.15302,0.29043,-0.023331,-0.51312,0.33235,-0.077686,-0.020118,-0.26469,-0.33043,-0.23839,-0.22803,-0.16336,-0.28345,0.081022,0.28547,-0.17781,-0.10856,-0.070904,-0.054579,0.042518,0.075494,-0.30878,0.0058744,0.13048,-0.042197,0.17899,0.31036,0.082938,0.14887,-0.0014472,0.29508,0.082294,0.10075,0.21489,0.15478,-0.28409,-0.26378,-0.23189,0.097283,0.051101,-0.11248,-0.045905,0.089084,-0.044429,-0.23023,0.3942,0.053119,0.24942,-0.28462,-0.035733,0.27054,0.026098,0.28379,-0.4807,-0.22258,-0.010854,0.1586,0.073095,0.3092,0.64772,0.00019112,-0.018475,0.19294,-0.081516,-0.032567,-0.34798,0.072466,-0.21286,-0.29276,-0.46732,-0.097089,0.29619,0.27026,0.33937,0.2405,-0.030885,0.18533,0.11549,-0.1226,-0.26099,-0.30871,-0.088347,-0.058829,0.37804,0.37066,-0.16536,-0.24752,0.051086,-0.095724,-0.078346,0.16429,0.029304,-0.26922,0.19344,0.3898,0.070357,0.10068,0.21864,0.41349,0.11195,0.33752,-0.17816,-0.52504,-0.12073,-0.40375,0.32758,0.52736,0.071002,-0.34178,0.13541,0.094894,-0.0081129,-0.58984,0.42395,0.001639,0.21106,-0.15314,-0.41675,-0.36678,0.45945,0.00073321,-0.0064942,0.35869,-0.16043,-0.29536,-0.16771,0.084874,-0.36003,0.098128,0.24254,-0.16004,-0.011159,-0.012104,-0.45579,0.23445,0.12325,0.13748,-0.10527,0.32726,-0.021073,0.43842,-0.081362,0.0093675,0.034265,-0.62307,0.24624,0.11923,-0.39864,-0.28164,-0.27421,0.28681,0.14349,-0.32578,0.1849,-0.53598,0.15498,0.45487,-0.28409,0.18886,0.051479,-0.043243,-0.47188,-0.27921,-0.080369,0.28438,-0.083181,-0.095812,-0.46501,-0.25219,-0.19436,-0.20649,0.076408,0.47068,-0.33658,-0.55699,-0.18382,-0.38147,-0.087287,0.64207,-0.12101,0.17424,0.10427,0.96601,-0.28798,0.47597,-0.067077,-0.10679,-0.080861,-0.50827,0.049321,0.21048,-0.19236,-0.2709,0.13949,0.2268,-0.070749,0.015524,-0.22323,0.12398,0.083772,0.5621,0.48731,-0.10139,0.34794,0.088286,0.24922,0.15882,0.28232,0.41901,0.57404,-0.038958,-0.082532,0.14071,0.16698,-0.021923,0.12059,-0.06939,-0.16503,-0.12885,0.14747,-0.1866,0.19308,-0.12295,0.1219,0.49013,0.1479,-0.321,0.28496,0.1366,-0.35306,0.34595,0.28239,0.26263,-0.061761,-0.023407,-0.27665,0.11309,0.32368,-0.37179,0.63178,0.26875,0.032866,-0.29347,0.31969,-0.1677,0.19161,0.09835,-0.23563,0.26262,0.56215,-0.50359,-0.24024,-0.070777,0.20509,-0.35232,0.46168,-0.15455,-0.46949,0.041822,0.85027,0.059546,-0.13249,-0.19221,-0.40856,-0.29729,0.0083137,-0.10055,0.22739,0.26897,0.39114,-0.37567,0.30731,-0.010299,0.2935,-0.023845,0.21864,-0.014786,-0.27052,0.23151,-0.27319,0.52161,-0.064547,-0.32174,-0.030168,0.054416,0.21797,-0.22643,-0.20828,-0.3963,-0.25172,-0.3845,0.36068,0.10718
charitable,0.0099801,0.19201,-0.46365,-0.018429,-0.37329,0.20585,0.23599,-0.083411,0.40803,0.086492,-0.15653,0.49853,-0.12408,0.054702,0.15925,0.17032,0.26713,-0.63039,-0.19766,-0.62262,0.1399,0.014583,0.21193,-0.14655,0.1142,0.09687,-0.39797,0.096775,0.096771,0.060251,0.21574,-0.036496,-0.0071832,0.18955,0.27303,-0.13869,-0.37429,0.026314,0.26165,-0.32293,0.44246,0.4072,0.071537,-0.41876,-0.1617,-0.21626,-0.18162,-0.39696,0.4556,0.15556,0.24425,-0.40549,-0.29352,0.0083812,0.3157,-0.49764,-0.41031,0.29781,-0.21536,0.20936,-0.43652,-0.48154,-0.1501,-0.0067181,0.43931,0.22507,0.33329,-0.18914,-0.22074,-0.32095,-0.11648,-0.22983,-0.20535,0.22035,0.50047,-0.043254,0.24575,0.10966,0.34385,-0.1443,-0.50268,0.31001,0.49935,-0.38862,0.022261,-0.094614,-0.29779,-0.0069388,-0.072148,0.11875,0.45545,-0.13571,-0.10372,-0.35104,0.48502,-0.40483,-0.66773,0.30549,-0.24213,0.064983,0.26192,-0.23985,-0.27095,-0.16786,0.21871,0.35657,-0.088224,0.4298,0.45371,-0.22376,-0.29969,-0.28734,0.31154,0.19699,-0.21117,-0.37084,0.03979,0.21497,-0.48505,-0.65395,0.29013,0.37198,-0.26927,-0.19365,-0.28754,0.33434,0.73855,0.039385,0.040381,0.10558,-0.4993,-0.39949,0.0066065,0.30891,-0.71771,0.11841,-0.057887,-0.054034,0.12332,-0.5258,0.2423,-0.11263,0.13892,0.14161,0.13389,-0.1582,-0.18199,0.087077,0.30186,-0.049355,-0.3332,-0.25175,0.39318,0.048497,-0.79502,0.1497,-0.27994,0.22593,0.18414,-0.45592,-0.086384,-0.27325,0.64875,0.1266,-0.13758,-0.39865,0.57184,0.45001,0.015881,0.29111,-0.14735,-0.054996,0.041458,0.3222,-0.12402,-0.12346,-0.35529,-0.25414,0.31237,0.13388,-0.29646,-0.62263,0.021638,0.32591,-0.24445,0.5619,0.40178,-0.22366,0.32863,0.59147,-0.32877,0.008771,0.12569,0.22792,0.48443,-0.3208,0.033525,0.54423,-0.42334,0.25232,-0.11446,0.29284,0.2493,0.18016,-0.81931,-0.021201,-0.34682,0.78655,0.10014,0.053091,-0.1602,0.090046,-0.17119,-0.14119,0.12051,-0.15942,0.31181,-0.35675,0.33571,-0.0042732,-0.024844,0.14026,0.065751,-0.1277,0.28499,-0.13037,0.13979,0.11683,0.404,-0.17433,0.13745,0.0068756,0.13497,-0.15723,-0.028662,0.47572,-0.16052,0.34632,0.37777,0.33076,0.067967,0.27358,0.39946,-0.1107,0.25051,-0.45528,0.42484,-0.6982,-0.016627,0.27577,-0.31569,0.3303,-0.27249,0.027787,0.21028,0.66825,0.23191,0.020603,-0.52042,0.45208,0.13366,-0.27897,0.57406,-0.13927,-0.16515,0.040218,0.81506,0.25605,-0.39144,-0.58334,-0.55326,-0.40274,0.41293,0.14973,0.10885,0.056829,0.41823,-0.54455,-0.16309,0.3947,0.3636,0.29315,-0.327,-0.36272,0.18235,0.046945,-0.18654,-0.05592,-0.29824,-0.04586,-0.089815,-0.0068394,0.18727,-0.029661,-0.28799,-0.66717,-0.016501,-0.20766,0.46319,-0.53832
chilly,-0.13027,-0.16961,-0.54956,0.025724,0.18134,0.0031147,-0.070057,0.6189,0.35442,0.29739,-0.089217,-0.12134,-0.54369,0.33148,0.26274,0.36592,0.32681,0.51185,-0.89623,0.076891,0.42764,0.60342,-0.0054317,-0.32631,0.0027839,-0.16324,-0.11646,-0.28286,0.24958,-0.14518,0.32058,-0.41484,0.513,0.29576,-0.047096,-0.33225,0.28762,0.062834,0.30688,-0.12435,0.66408,0.39491,0.19854,0.29746,0.070962,0.070331,-0.23133,-0.27253,0.11037,0.73803,0.16284,0.19996,-0.028459,0.14078,0.48909,-0.24927,0.026771,0.060555,-0.11514,-0.28041,-0.33459,-0.33403,-0.22918,0.25575,-0.049296,-0.36483,0.025353,-0.057706,-0.10095,-0.13375,0.080317,0.044139,0.15383,-0.32208,-0.075208,0.078593,0.049562,-0.1051,-0.17845,-0.26973,-0.11327,0.16544,0.21474,-0.10096,-0.18563,0.57707,-0.0096055,-0.32406,-0.095888,0.36435,0.32425,0.11556,0.45288,0.32141,-0.31136,-0.11528,0.19461,-0.12813,-0.21905,0.010046,0.62245,0.32509,-0.073778,-0.47908,0.39125,0.6684,0.23479,-0.16369,0.022439,-0.40426,0.51124,-0.087971,0.11723,-0.43077,-0.33596,-0.073363,-0.27132,0.42825,-0.21719,-0.788,0.28982,0.078469,-0.21184,0.63277,-0.1162,-0.39028,0.56719,-0.17667,-0.031609,0.16996,-0.1394,-0.55659,-0.28742,0.052798,-0.15425,-0.31319,-0.15539,-0.093377,-0.071016,0.24996,0.29346,-0.1727,0.61565,0.18075,-0.020556,0.093784,0.53198,-0.46999,-0.21663,0.61995,-0.24661,0.20943,-0.25865,0.22965,-0.27343,-0.64852,-0.14099,0.45365,0.63276,0.13942,0.75849,-0.2929,0.2015,-0.04038,-0.55084,0.28141,0.069738,0.21665,0.01152,0.24441,0.12219,0.21748,-0.33938,-0.40779,-0.42566,-0.041548,-0.60198,-0.067367,0.82353,-0.077481,0.27042,-0.76765,-0.44044,-0.19596,-0.0074291,0.43128,0.11914,-0.043974,0.40027,0.32726,-0.40304,-0.17008,-0.23699,0.19323,0.17454,0.13866,-0.54117,-0.05979,-0.30987,0.36067,-0.38007,0.19107,0.33347,0.45123,0.18559,0.11278,-0.1656,-0.18632,-0.12703,-0.14857,0.11346,0.045154,-0.095009,0.22759,0.36411,0.37432,0.13925,-0.74441,-0.27184,0.02992,0.15285,-0.13798,-0.1484,0.28889,-0.48404,0.25881,0.090091,-0.32243,0.24116,0.5765,0.21632,0.1123,-0.39565,-0.5753,0.13232,-0.065012,0.18239,0.082702,-0.14668,0.17093,0.47595,0.068816,-0.22017,0.078703,0.51676,0.063571,0.46784,-0.21843,0.097779,0.029153,-0.33165,-0.18814,0.033468,-0.48837,-0.46302,-0.11756,-0.020676,0.26538,-0.075125,-0.12993,0.36528,-0.19309,0.19114,0.3952,-0.030488,-0.6621,-0.24979,-0.069445,-0.16817,0.12109,0.76768,-0.26915,0.066497,0.4508,-0.19068,-0.23234,0.3913,-0.3749,-0.12932,-0.18215,-0.23732,-0.67196,0.25766,-0.42718,-0.29893,0.48717,-0.32766,0.77208,0.092004,-0.05866,-0.22795,-0.23864,0.17478,0.084126,-0.3548,-0.25687,-0.82915,0.16433,0.12873,0.065266
cold,-0.31868,0.035085,-0.40688,0.34724,0.011614,0.072143,0.12689,0.30998,0.15897,0.062161,-0.040173,-0.075331,-0.187,0.25944,0.10489,-0.23991,-0.11409,0.39481,-0.72299,0.021574,0.37698,0.71249,-0.13451,-0.12846,-0.035103,-0.37335,0.26569,0.045661,0.37273,-0.72207,0.34461,-0.36143,0.29148,0.64318,-0.059187,-0.33834,-0.19402,0.08152,0.22505,0.11181,0.80699,0.36798,0.05109,-0.19839,-0.1958,0.079141,0.048687,-0.19186,-0.12797,0.87592,0.10549,0.10529,-0.30057,0.067289,0.41085,-0.09556,-0.14023,0.2369,-0.27248,-0.19516,-0.26543,0.12169,-0.048915,0.24319,-0.23322,-0.19556,0.37319,0.091895,0.023203,0.22191,0.16247,-0.16111,0.10682,0.018012,-0.039324,0.28702,-0.0062565,-0.27454,-0.18614,-0.23187,0.078609,0.30362,0.25406,0.081088,-0.043327,0.25777,0.0064225,-0.44273,-0.15026,0.062873,0.20051,-0.12091,0.16829,0.29801,-0.51596,0.032481,0.045803,-0.42779,-0.11086,0.08534,0.51738,0.55618,-0.46929,-0.043505,0.19926,0.2704,0.11534,-0.21929,-0.14322,0.042276,0.37647,-0.091732,0.055927,-0.44561,-0.46562,-0.37304,-0.066142,0.13363,0.21467,-0.68319,-0.0073402,0.48943,-0.21059,0.31891,-0.38893,-0.39963,0.55754,-0.19443,0.32287,-0.22493,-0.0063141,-0.32679,-0.29998,0.20343,-0.23909,0.0035181,0.17599,-0.079079,-0.17074,0.17582,0.0014072,-0.2407,0.20214,-0.098442,-0.014706,-0.089679,0.4395,-0.39062,-0.33863,0.5039,-0.44313,0.22132,-0.46625,0.30826,0.17276,-0.14736,-0.29412,0.55074,0.085273,0.2009,0.4623,-0.693,-0.012756,-0.00040758,-0.20532,0.14276,0.4366,0.067829,-0.10398,-0.0047538,0.32011,0.24295,-0.1284,-0.2953,0.030955,-0.18407,-0.58013,-0.36498,0.75377,-0.10521,0.47411,-0.80654,-0.34285,-0.095834,-0.073658,-0.0071809,-0.010751,0.23301,0.41146,0.53916,-0.75046,-0.31076,-0.60177,-0.10293,0.33961,-0.027837,-0.34638,-0.11806,-0.54143,0.084149,-0.59324,0.23429,0.31453,0.34998,0.22108,-0.12058,-0.10739,0.2192,-0.058484,-0.25786,0.093011,-0.0018192,-0.16802,-0.086707,0.15358,0.30754,0.13928,-0.76964,-0.13977,-0.11764,0.3889,0.17958,-0.3255,0.11984,0.10439,-0.15902,-0.059,-0.035634,-0.017602,-0.07493,0.15546,0.53571,-0.15484,-0.39726,-0.1021,0.23201,0.20806,0.02758,-0.23044,0.3188,0.27819,0.21952,-0.44474,-0.23712,0.78734,-0.42884,0.23833,0.097213,0.1612,-0.0090929,-0.43222,-0.12893,-0.025528,-0.39169,-0.42957,-0.50725,0.017682,0.21229,-0.24039,-0.30608,0.23881,-0.17714,0.12077,0.24064,0.058051,-0.36427,0.10216,-0.21716,-0.18783,0.052833,0.056482,-0.41645,0.041708,0.47695,-0.33268,0.085661,0.21086,-0.086306,-0.13919,-0.072571,0.11755,-0.22586,-0.11043,-0.51076,-0.099467,0.61136,-0.35107,0.4544,0.14639,0.046869,-0.22654,-0.21229,0.3959,0.22881,-0.16873,0.23741,-0.90293,0.27256,0.33089,0.22593
comforting,-0.47343,-0.2086,-0.25675,0.24466,-0.43318,0.18312,-0.10705,0.11408,0.097841,0.16718,-0.42984,0.17254,-0.17903,0.073313,-0.039094,0.020808,0.093882,0.075133,-0.56448,-0.53733,0.13273,0.66599,-0.15168,-0.40509,0.040182,-0.12963,-0.15382,0.1089,0.21387,-0.055445,-0.17838,-0.1617,0.44934,0.082768,0.20133,-0.37703,-0.25831,0.26043,0.33871,-0.21039,0.17589,0.19468,0.087274,0.00066184,-0.15283,0.35925,0.437,0.18041,-0.29321,0.31413,0.092946,-0.0523,0.12511,0.1846,0.13347,-0.45133,-0.26758,-0.20964,-0.069651,0.18594,-0.228,-0.50285,-0.0066691,0.15375,0.29662,-0.24664,0.51069,0.012955,-0.20172,0.47147,-0.156,0.14637,-0.17705,0.11812,-0.66841,-0.089185,-0.53033,0.028553,0.14669,0.16492,0.18013,0.19229,-0.17555,0.068766,0.031143,0.065401,-0.053148,-0.39634,-0.064694,-0.014821,0.49222,-0.044273,0.14092,-0.20813,0.051664,-0.12584,-0.38245,-0.044917,-0.073315,-0.2645,0.32629,0.33943,0.070654,-0.16558,-0.098868,0.31326,0.30584,-0.21813,-0.32434,-0.33112,-0.0014511,-0.16427,0.29447,-0.09433,-0.44872,0.12021,-0.23009,0.12557,0.23564,-0.39537,0.57879,-0.17019,-0.25604,-0.0096058,0.13578,-0.17756,0.39419,0.016651,0.050965,0.31231,-0.39512,-0.26498,-0.44421,-0.098417,-0.30763,0.21362,-0.068197,-0.10479,0.36403,0.21574,-0.25427,0.12651,0.2902,0.17064,0.0099112,0.14864,0.17529,0.26524,-0.60935,0.31592,0.089424,-0.35341,0.096652,0.27267,-0.39653,-0.22063,-0.32315,0.27285,0.055641,0.067787,0.43943,-0.18065,-0.094176,0.23355,-0.18108,0.17942,0.25361,0.41315,-0.069419,-0.084837,-0.024753,0.64539,0.28818,-0.067467,-0.228,-0.0075907,-0.38904,-0.1804,0.067504,0.40092,-0.28893,-0.58222,-0.36824,0.0017293,-0.054749,0.41465,-0.047796,0.3485,0.022756,0.39914,-0.25514,0.13378,-0.25382,0.11913,0.41182,-0.20847,-0.32981,-0.43891,-0.20738,0.2209,0.034818,0.1086,0.011372,-0.14726,-0.11112,0.099422,0.14916,0.11724,0.43956,0.33514,0.091399,0.10626,0.16024,0.13592,0.23256,0.30696,0.57253,-0.009143,-0.12621,0.18043,-0.0030305,0.11284,-0.054128,0.21548,0.10264,-0.35389,-0.018697,-0.43076,-0.13066,0.18728,-0.077131,0.085584,0.41597,-0.11256,-0.042186,-0.013719,0.29878,0.035371,-0.0069698,0.30921,0.22608,0.26285,-0.13288,-0.13653,0.18594,-0.081811,0.40357,0.037555,-0.048846,-0.06027,0.089551,-0.37086,0.18559,0.14887,-0.41031,0.022252,0.38278,0.23864,0.020803,0.082921,0.44415,-0.33388,0.25,0.025936,-0.58522,0.029754,0.57724,-0.045797,0.0028384,-0.2461,-0.19866,-0.40562,-0.047827,0.26028,0.064987,-0.033742,0.1579,-0.27147,0.077967,-0.026699,0.12864,-0.48439,0.15948,-0.41706,-0.26058,-0.06247,-0.37978,0.49772,-0.24384,-0.40681,-0.25977,0.0046346,0.681,0.047322,-0.27718,0.093174,-0.20269,0.021953,0.21534,0.12556
competitive,-0.17557,0.51347,-0.22816,-0.11702,-0.25226,0.15501,0.046815,0.055676,0.020073,-0.21497,0.0015189,-0.030172,0.14548,0.26152,0.43434,-0.085284,-0.11211,0.072602,-0.55626,-0.28853,0.2283,0.58963,-0.44752,-0.14386,-0.18686,0.17071,-0.19674,-0.34806,-0.71154,-0.020785,-0.031727,0.1882,0.24614,0.61444,-0.37643,0.60884,0.32447,-0.21903,0.20599,-0.53406,-0.058907,0.34639,0.095795,-0.45274,-0.24073,-0.06367,0.1041,-0.16134,-0.021891,0.5446,0.22944,-0.022315,-0.28647,0.064937,0.13114,-0.4307,-0.30389,-0.014896,-0.0302,0.38743,-0.52511,-0.38803,0.36794,0.13929,0.062729,-0.057736,1.0347,0.32285,-0.51886,0.085638,-0.5202,0.11733,0.33538,-0.22056,0.079017,-0.32154,0.33352,0.1072,-0.043867,0.18173,-0.3016,0.074153,0.25807,0.33513,-0.043332,-0.060174,0.22197,-0.13218,0.12319,-0.094641,0.1197,-0.1722,0.20052,-0.090031,-0.11353,-0.028,0.13031,0.2434,0.086391,-0.15665,0.15643,-0.04679,0.095009,0.21616,0.043998,0.1784,-0.11921,0.15815,0.08041,-0.023536,-0.15301,-0.0036739,0.38783,0.44097,0.15043,-0.11374,0.12128,0.1856,-0.22808,-0.50629,-0.023424,0.2111,-0.49271,0.0046119,0.069499,-0.031267,0.22152,0.23492,0.00048099,-0.073819,0.21894,-0.016413,-0.17958,0.096645,0.017901,-0.13076,0.070128,-0.11721,-0.038025,-0.12946,-0.32719,-0.057566,0.25096,0.24321,0.53167,-0.28919,0.13276,0.1107,0.011778,0.010767,-0.22293,-0.11801,-0.25744,0.12145,-0.096856,-0.22304,0.49378,0.3213,0.16008,-0.61678,0.54048,0.20536,-0.089741,0.13754,-0.26407,0.19294,-0.071335,0.19899,-0.26879,0.00981,0.00011054,-0.15407,0.073593,-0.32352,0.18448,-0.020209,-0.33405,-0.38013,0.3864,0.33182,-0.57267,-0.024514,0.072323,-0.073114,-0.45131,0.20567,0.56261,-0.037131,0.22806,0.45395,0.46985,0.21013,-0.19593,0.14866,0.15424,-0.54337,-0.0743,0.27662,0.41323,0.45697,-0.25366,0.44846,0.2196,0.2021,0.039946,-0.019961,-0.37995,0.33996,0.41878,-0.30128,-0.33945,0.21021,0.015611,-0.0729,0.12192,0.334,-0.03378,-0.63872,0.040637,-0.16798,0.18654,0.34423,-0.10886,0.29974,-0.4857,-0.53418,-0.23518,-0.17505,0.64419,0.11298,0.22248,-0.41427,0.16516,-0.15946,0.37591,0.084819,0.20448,-0.56109,0.16651,0.035959,0.30166,-0.12688,-0.087707,-0.45571,-0.16543,-0.20154,0.24395,-0.072416,0.29534,0.55208,0.25302,0.15415,-0.27091,0.28665,-0.61539,0.0072345,-0.64553,-0.047727,0.28686,-0.17803,-0.22685,0.049392,-0.41709,-0.4962,0.17113,0.11269,-0.43801,-0.067525,-0.39082,-0.27115,0.047484,-0.23426,-0.22162,-0.016299,0.048545,-0.077756,-0.25794,0.032058,-0.085301,-0.21696,0.49466,-0.088372,0.23146,-0.35393,0.16235,-0.50941,0.53487,0.046812,0.1774,-0.25831,-0.025483,0.15945,0.06913,-0.097332,-0.73018,-0.026257,0.055676,-0.046522,0.076693,-0.18901
comradely,-0.018809,0.53535,-0.021693,-0.30285,-0.64351,-0.050057,0.27449,-0.28892,-0.053575,-0.04736,-0.51894,0.31948,-0.32644,0.52864,-0.23452,0.11215,0.25674,0.15631,-0.07879,-0.16758,0.14876,0.65399,0.23728,-0.43966,-0.1621,-0.12206,0.25012,-0.060064,-0.074627,0.066346,-0.058556,-0.35174,-0.28095,0.31723,0.23093,0.075536,-0.20262,0.3343,-0.13802,0.44251,0.19972,-0.33437,-0.17207,0.43992,0.10718,-0.27053,0.5313,-0.13,0.2976,0.61958,0.46011,-0.87138,-0.16659,0.050734,-0.060821,-0.8428,-0.21104,-0.69743,0.37495,0.2189,-0.26686,-0.20458,-0.060598,0.084801,0.08937,-0.45632,0.16971,0.13899,0.25861,0.20408,-0.32059,-0.054169,-0.20496,0.36752,-0.16155,-0.23325,0.09991,0.14106,-0.04767,0.579,0.19446,0.2098,-0.10004,-0.37633,-0.092211,0.27446,0.41694,-0.094273,-0.053934,0.24258,0.34956,-0.21191,0.10507,0.12427,0.2668,0.04823,-0.12909,-0.14542,0.019567,0.25791,0.12998,0.22922,-0.15996,-0.086836,0.061567,0.13383,-0.11424,0.12414,-0.010709,-0.5216,-0.23754,-0.24809,0.017191,-0.15114,0.010312,0.01405,0.00012728,0.34754,-0.11943,-0.49709,0.15482,-0.60776,0.25477,0.023482,-0.014523,-0.62493,-0.04376,0.25897,0.45443,-0.55016,-0.47827,-0.081949,-0.36089,-0.06645,-0.08276,-0.20264,-0.0074444,-0.15908,-0.41822,-0.36881,-0.32462,0.33558,-0.28694,0.095741,-0.28846,-0.13046,0.13473,-0.12719,-0.17019,-0.059457,0.17674,-0.39946,0.5128,0.17142,-0.24826,-0.57485,-0.36284,0.34371,-0.06948,-0.22718,0.28849,0.059699,-0.19694,0.49282,-0.30509,0.021944,-0.022491,0.32436,0.61846,-0.098941,-0.2864,0.30942,-0.10483,-0.088506,0.046603,0.23037,-0.21766,-0.24359,0.46473,0.68836,-0.12589,-0.48797,0.050554,0.11332,-0.066622,0.17069,0.4004,0.44922,-0.27166,0.41388,0.11455,0.31515,0.17593,0.030983,-0.2538,-0.29301,0.11667,-0.1745,0.23504,0.19754,-0.38457,-0.3433,0.13377,-0.2434,-0.15042,-0.16095,0.26744,0.033258,0.16969,0.59043,0.37292,0.18807,0.26832,-0.094927,-0.088258,0.16749,0.096901,0.096602,-0.29807,-0.29041,0.18157,0.20561,-0.10673,0.25467,-0.11693,0.17453,-0.093699,-0.0691,-0.24864,-0.13818,-0.25425,-0.25035,0.48143,-0.15647,-0.18866,-0.12451,0.27562,-0.15783,0.13127,0.36114,0.37929,-0.024006,0.27801,0.033339,-0.03373,-0.29061,-0.45561,0.44473,0.51598,0.30362,0.092264,0.25933,0.31796,-0.099187,-0.0941,-0.12037,-0.26856,-0.10293,-0.5427,-0.068658,0.7066,-0.25373,0.26784,-0.14284,-0.41346,0.11752,0.62406,-0.047803,-0.025647,-0.17175,0.26861,-0.27471,0.23917,0.37604,0.10565,0.10962,0.018744,-0.23774,-0.17108,-0.32883,0.04585,-0.17505,-0.018877,-0.33203,-0.47937,-0.14277,0.21167,0.81118,-0.64107,-0.19006,-0.54467,-0.19134,0.4615,0.17827,-0.19875,-0.24746,-0.23969,-0.1035,-0.26858,0.1113
cool,-0.16467,0.21843,-0.031252,0.1863,-0.0022206,-0.16035,0.065365,-0.044958,-0.034093,0.56308,-0.18797,-0.23272,0.23258,0.41664,-0.078794,0.35361,-0.029176,-0.030463,-0.69708,0.049485,0.10012,0.42549,-0.024558,-0.1248,0.27336,-0.1883,0.083606,-0.12659,-0.02374,-0.29037,-0.08768,-0.098741,0.3818,0.27583,-0.60247,-0.35477,0.034218,0.32512,0.089435,0.074118,0.65628,0.66693,0.10878,0.16188,0.04583,-0.2331,0.10438,-0.29189,-0.17332,0.57162,-0.13553,-0.21022,-0.31826,0.20302,0.7002,-0.38505,-0.12602,0.29626,0.047896,-0.087258,-0.21103,-0.23675,-0.24072,0.31817,-0.24767,-0.36127,0.50792,0.25873,-0.10916,0.050288,0.30335,-0.10711,-0.15579,-0.21189,-0.34499,0.25396,-0.20787,-0.28484,-0.18212,-0.10192,-0.080393,0.20042,0.19347,-0.065742,0.34348,-0.21473,0.27115,-0.32384,-0.042207,-0.045897,0.20309,-0.075668,0.027843,0.093681,-0.5797,-0.021919,0.15341,-0.14685,0.43799,-0.095769,0.43723,-0.024429,0.11419,-0.24705,0.051321,0.081368,0.096192,0.18973,0.15166,-0.35358,0.19469,-0.21934,0.12192,-0.52232,-0.47736,-0.036795,-0.33381,-0.0037686,-0.044413,-0.96988,0.26822,0.17045,-0.23976,0.074972,-0.252,-0.42684,0.75359,-0.32115,0.21678,0.080587,-0.046767,-0.45746,-0.42063,-0.014979,-0.33487,-0.13946,-0.3042,0.44555,0.22635,-0.31504,0.019911,-0.1161,0.20662,0.0090648,-0.099074,0.10029,0.29389,0.13659,-0.48766,0.004738,-0.29776,0.24432,0.16545,0.079231,-0.35034,0.015699,-0.22284,0.62549,0.082959,0.18413,0.64542,-0.65034,0.31075,-0.026051,-0.35001,0.58731,-0.39372,0.24759,-0.1738,-0.11944,-0.11621,0.43485,0.19344,-0.51233,-0.52436,0.25824,-0.47624,0.018971,0.23259,-0.26156,0.065932,-0.14368,-0.35964,-0.2078,0.13201,0.15336,-0.04049,0.11654,0.41618,0.084394,-0.098882,-0.14998,-0.45033,-0.00055606,-0.27388,-0.081393,-0.12822,-0.23292,-0.3665,0.19125,-0.32224,0.1115,0.15433,0.2602,-0.0080592,0.067736,-0.16559,0.17669,-0.044561,0.018664,0.092628,0.12688,-0.046895,-0.10034,0.014207,0.45189,0.65556,-0.69497,-0.030411,-0.17235,-0.043247,-0.12274,-0.28495,-0.092609,-0.44696,0.083419,-0.55522,-0.16032,-0.036847,0.23054,0.42634,0.2665,0.19275,-0.21596,-0.099137,-0.16618,-0.15889,-0.063779,0.027747,0.21983,0.48587,-0.097594,0.016489,0.24028,0.3843,-0.40159,0.27987,0.25144,0.27858,-0.21841,-0.25946,0.30854,-0.33018,-0.064238,-0.17891,-0.2848,-0.48057,0.1126,-0.05137,-0.36028,0.19729,-0.16656,-0.11717,-0.059613,0.19207,-0.38276,0.21714,-0.057838,0.22511,0.012623,0.013574,-0.23495,-0.2211,0.28416,-0.29083,0.26114,0.25362,-0.58737,-0.18279,-0.35427,0.040554,-0.24283,-0.071176,-0.20248,-0.44133,0.64417,-0.22466,0.34986,-0.27005,-0.56372,0.067299,-0.12097,0.24617,0.056164,-0.19521,-0.13456,-0.76832,0.027129,0.20483,0.54893
cordial,0.088017,0.31591,-0.49625,-0.33214,-0.14315,-0.49625,0.25046,0.044744,-0.0036997,-0.011867,0.31992,0.5401,0.39605,0.39207,-0.09567,0.014399,-0.032108,0.026845,-0.49997,-0.43576,0.63874,0.71425,0.57106,-0.24402,-0.064044,0.071955,-0.30811,0.20405,0.20707,-0.24531,0.13826,-0.3737,0.013363,0.35272,-0.066412,-0.23676,0.01567,-0.11241,0.40618,0.17651,-0.0022194,0.31717,0.45865,0.41018,0.14117,-0.29451,-0.073067,-0.2938,-0.21679,0.10995,0.16812,-0.26381,-0.083107,-0.30901,-0.14287,-0.81843,-0.0016321,-0.45147,0.1367,0.010931,-0.075354,-0.22046,-0.071653,0.21764,0.38355,-0.016344,0.27244,0.39955,-0.17603,-0.023391,0.019921,-0.24955,-0.26914,-0.10729,-0.0007585,-0.26353,-0.23578,0.14092,-0.31442,0.083222,0.28249,0.55802,0.50486,-0.15554,-0.075672,-0.15472,-0.17925,-0.35249,0.39251,-0.090426,-0.42853,-0.074928,-0.13898,-0.80465,-0.37006,0.049721,-0.49279,0.10847,0.38774,-0.21427,0.23166,0.192,0.33696,-0.38965,0.46802,0.22025,-0.15928,-0.17699,-0.18855,-0.46202,0.23741,-0.054847,0.26424,0.68529,-0.47554,-0.52551,-0.13356,0.25062,-0.71094,-0.48028,0.70905,-0.4502,0.048582,-0.30609,-0.045834,-0.49703,-0.19821,-0.13352,-0.1157,-0.38839,-0.18819,-0.13964,-0.37588,-0.089841,-0.75929,-0.057452,-0.11599,0.36928,0.24046,0.016791,0.26227,0.51728,-0.021277,0.6436,-0.45427,-0.091378,0.31652,-0.46617,0.029568,0.33569,-0.049654,-0.11059,0.1912,0.33127,0.26083,-0.5245,-0.42118,0.61486,0.47494,-0.49059,0.16079,-0.21287,-0.30022,0.23387,0.086713,0.24252,0.29819,0.79413,-0.13487,0.12245,-0.31496,0.74586,-0.28489,-0.62056,-0.26683,-0.051431,0.050398,-0.14682,0.24729,-0.38172,0.36338,-0.013995,-0.10478,-0.45668,0.13937,0.17976,0.016635,0.27697,-0.32814,1.0494,-0.14591,0.40226,-0.51365,-0.3447,0.11541,0.18333,-0.093795,0.66061,0.19304,-0.071182,0.031555,0.3201,-0.1392,0.4019,-0.19394,0.17539,-0.22253,0.29554,0.48708,-0.20224,-0.29304,0.41259,-0.19569,-0.071531,0.46885,-0.30884,0.44603,-0.4694,-0.64158,0.034287,0.077991,0.40157,-0.033232,0.16765,-0.28908,0.82219,0.10617,-0.53676,0.3388,0.49595,-0.048016,0.19796,0.42565,0.14928,-0.29474,0.060936,0.12081,0.11847,0.48192,0.25579,0.20655,0.32252,-0.25771,-0.19118,0.40263,-0.37633,0.12273,0.0090065,0.08023,0.2309,-0.099101,-0.60526,-0.13267,-0.38226,-0.51775,0.12012,-0.37825,-0.045156,-0.34172,-0.20921,0.60354,-0.090881,0.36169,0.2645,-0.97596,-0.20442,0.42256,0.16124,0.12846,-0.19896,0.086149,0.16757,-0.036208,0.018344,-0.10346,-0.28544,0.10799,0.10739,-0.12628,-0.28284,0.34363,-0.37016,0.090979,0.15212,-0.61709,-0.07334,-0.33088,0.83459,-0.13941,-0.31253,0.030873,-0.22956,0.3202,0.10888,-0.19567,-0.19622,0.00076603,-0.22089,-0.0016465,-0.006684
disdainful,-0.17229,0.20954,-0.24703,0.18979,-0.057311,-0.25561,-0.19256,0.012075,0.19131,0.082917,0.27081,0.26662,0.06017,0.16993,0.027857,-0.070773,-0.12203,-0.015999,-0.1828,-0.22321,0.19998,0.57338,0.015356,-0.17125,-0.058417,-0.049638,0.02772,0.12411,0.0033065,0.063419,-0.1726,0.1494,0.077674,0.31851,0.0097724,-0.25969,0.00095826,-0.095174,0.292,0.23578,0.31436,0.11425,-0.11349,-0.24052,0.18657,-0.37593,-0.2213,0.0012369,0.18103,0.55033,0.1875,-0.13918,-0.47588,-0.00079151,-0.42537,-0.20458,0.010961,-0.70069,-0.0077662,0.13727,-0.22279,-0.22367,-0.055363,0.26285,0.011873,0.092468,-0.29012,0.28975,-0.12513,-0.044805,-0.011828,-0.38011,-0.21081,0.24771,-0.47265,-0.34226,-0.22121,0.1165,0.13885,-0.1021,0.13252,0.36211,0.051331,-0.20842,-0.094856,-0.2115,-0.28337,-0.33244,-0.17242,0.18845,-0.081943,-0.068587,0.04703,0.044868,0.26169,-0.16725,-0.48897,-0.053626,0.090715,0.1067,0.30779,0.55488,0.35648,0.26285,0.45907,-0.38908,-0.087298,-0.36837,0.062552,-0.29678,0.10158,-0.1138,-0.17246,0.27193,0.18334,-0.042775,0.059674,0.53526,0.051756,-0.13065,-0.22436,-0.29728,-0.1661,-0.060557,0.16312,0.037775,-0.20461,-0.0076849,0.28033,0.090597,-0.12262,0.025739,-0.29136,-0.022599,-0.12327,0.19132,0.14974,-0.11913,-0.15723,-0.12201,-0.13588,0.34713,0.37249,-0.16442,-0.014811,-0.020978,0.051176,-0.51968,-0.22126,-0.03402,-0.10605,-0.28204,0.56224,0.29435,-0.43703,-0.27351,-0.23008,0.7172,0.25533,-0.51086,0.27186,-0.26412,0.021798,0.70314,0.24367,-0.20292,0.2457,0.55197,0.21349,-0.13639,0.06829,0.40644,-0.26781,-0.35995,0.34968,-0.016563,-0.44724,-0.36885,-0.15198,0.33261,-0.087839,-0.67267,-0.26012,-0.1205,0.15439,0.40557,0.01472,0.062899,0.035955,0.58437,-0.10416,0.28436,0.20594,0.24309,0.30728,-0.17736,-0.29007,0.43695,-0.19053,0.14546,-0.25651,-0.094606,-0.25846,0.038576,0.33734,0.3484,-0.082929,0.12393,0.19385,0.12313,0.0043909,-0.071853,-0.019039,0.40914,0.072542,0.35496,0.27647,-0.36182,-0.23747,-0.22853,0.37516,0.30489,-0.31554,-0.11194,-0.69451,-0.023901,0.26169,-0.31428,-0.07838,0.26546,0.23835,-0.063094,0.45337,0.27858,-0.11642,-0.016963,0.34919,0.36018,0.39898,0.22131,0.11983,0.060805,0.068225,-0.16678,0.3,-0.33011,0.14921,0.29847,0.10477,0.14716,-0.12581,0.0019298,-0.1313,0.18524,-0.50993,-0.02489,0.014778,-0.062021,-0.41721,-0.094974,0.59209,0.24125,0.16344,0.21909,-0.37476,0.3019,0.60624,0.37004,-0.15662,-0.24799,0.11104,-0.25244,0.30209,0.37065,0.14998,0.2989,0.39813,0.2723,-0.20476,-0.10465,0.22129,-0.84307,0.37881,-0.41444,-0.44867,0.076184,0.071242,0.38264,-0.10286,-0.4182,-0.45299,0.059814,0.2921,0.039119,-0.41823,0.076661,-0.039186,-0.091024,0.23557,-0.010885
dispassionate,-0.00069138,-0.30631,0.30156,0.20773,-0.2893,0.087876,-0.045555,-0.32611,0.021048,-0.39464,-0.071668,0.18537,0.038986,0.20088,-0.083512,0.52245,-0.25513,0.22772,-0.13413,-0.23311,-0.092278,0.57571,-0.17408,-0.60316,0.21476,0.093823,-0.16198,-0.04631,0.26787,-0.005957,-0.15872,0.057517,0.24448,0.50847,-0.32426,-0.25872,0.13898,0.24689,0.10126,0.48835,0.48883,0.41358,-0.059994,-0.30354,-0.12318,-0.41677,-0.14511,-0.42813,0.12285,0.25243,0.29099,-0.37054,0.28771,0.48003,0.23638,-0.3763,-0.36472,-0.10372,0.26137,0.25873,-0.31532,-0.573,0.44869,0.44397,0.056247,0.033969,-0.0085714,0.0099578,-0.012402,0.028924,-0.12715,-0.33842,-0.3634,-0.31095,-0.29635,-0.38544,0.27638,-0.073523,-0.22025,0.11577,-0.16752,0.41181,0.27689,-0.20913,0.24959,-0.064841,-0.062078,-0.26574,0.2536,0.34345,0.47936,-0.12676,0.20665,-0.41131,-0.23916,-0.050351,-0.2492,0.12339,0.089593,-0.12663,0.09243,0.37684,0.038863,-0.19683,0.40591,0.20343,-0.40027,-0.24864,0.13762,-0.6968,0.15098,0.050712,-0.17028,-0.31585,0.012199,0.062833,0.26818,0.11225,-0.058579,-0.62115,0.12529,-0.09678,0.25245,-0.17321,0.018065,-0.29067,0.067889,0.019971,-0.087874,-0.0031018,0.43463,-0.11257,-0.2164,0.47759,-0.56247,0.082647,0.20394,-0.13987,-0.029064,-0.060923,-0.48276,0.28019,0.27212,-0.26,-0.027564,-0.20072,0.48457,-0.047779,-0.053816,-0.024746,0.14973,-0.19381,0.18775,0.11054,-0.30653,-0.47364,-0.32069,0.97942,0.068276,-0.45267,0.24073,-0.16253,0.10892,0.46838,-0.078702,-0.11228,0.43746,0.053409,-0.082099,-0.25643,0.17953,0.21547,-0.022201,0.0092989,0.065739,0.10724,-0.096135,-0.45312,-0.20208,0.2955,-0.36828,-0.17956,-0.24684,-0.15438,-0.10588,0.43492,-0.38879,-0.076337,0.22482,0.39034,0.087266,0.18759,-0.12962,0.010006,0.23301,-0.28781,-0.29039,0.35369,-0.28281,0.76584,-0.070936,-0.096313,-0.63499,0.31187,-0.0076982,0.13113,-0.05525,0.42458,0.32738,-0.029406,0.14083,0.17943,-0.43516,0.33915,0.49536,0.29365,-0.25624,-0.2525,0.21929,-0.22913,-0.015465,-0.066133,-0.15675,-0.0047432,-0.074011,0.06679,0.042056,-0.070188,-0.0044539,0.032388,0.63239,0.48311,-0.33335,0.0033473,0.15344,-0.059454,0.11993,-0.15141,0.24056,0.021208,0.1451,0.53079,-0.10907,-0.17777,-0.041343,-0.16797,0.1536,-0.15638,0.21665,-0.3031,-0.12401,0.038991,-0.1641,0.15594,-0.38017,-0.31396,-0.17603,0.02045,-0.028639,0.10977,0.469,0.24271,0.28758,0.22275,-0.62162,0.096711,0.15715,-0.06566,-0.16023,-0.27544,0.17433,-0.28066,-0.13832,0.080689,0.2335,-0.0271,0.25645,0.17249,-0.033015,-0.085004,0.13244,-0.43161,0.20623,-0.4151,-0.12737,0.32557,-0.083777,0.54212,-0.10499,-0.8132,-0.25539,-0.1938,0.069254,0.17365,-0.22493,-0.48943,0.04041,0.26639,0.076781,-0.075924
distant,-0.52866,0.016135,-0.4722,0.2985,-0.35478,0.37511,-0.05928,0.17109,-0.092456,-0.31436,0.079097,0.24961,-0.12046,0.13344,-0.23578,-0.25594,0.37597,-0.072342,-0.22219,-0.23764,0.29285,0.43997,-0.22501,-0.50173,-0.39292,-0.061274,0.51495,-0.17918,-0.15934,-0.28899,-0.22,-0.40677,0.18015,0.32593,0.226,-0.26356,-0.13401,0.041789,0.15811,-0.17999,-0.086507,0.28233,-0.38119,-0.085937,0.11528,0.34588,0.06455,0.24507,-0.1498,0.10074,0.0041049,-0.10823,0.026086,-0.05431,-0.053748,-0.081813,-0.048358,0.062631,0.28537,0.32268,-0.38584,0.22821,-0.25005,0.2681,0.13538,-0.17755,0.2368,-0.11999,-0.2996,-0.16654,0.014227,-0.18812,0.026092,0.16456,-0.63743,-0.15816,-0.10566,0.22119,0.34082,0.060176,-0.12026,-0.1309,-0.34233,-0.12557,0.66743,-0.44954,-0.29887,0.020416,0.10745,-0.18034,-0.19577,-0.24551,0.14451,-0.24812,-0.17644,0.094777,0.0060315,-0.34958,-0.17815,-0.08437,0.15758,0.43878,0.18222,0.21416,0.017306,0.12212,-0.4995,0.18865,-0.37741,0.36613,0.15689,-0.12318,0.04359,0.48527,-0.50294,0.23386,-0.35123,0.42111,0.0013401,-0.60203,0.53184,0.40917,-0.35975,0.21233,0.25539,-0.29193,0.37069,-0.13981,-0.17176,0.051139,-0.11527,-0.65738,-0.44873,-0.042108,-0.24286,0.050115,0.34774,-0.18596,-0.23033,-0.27325,-0.15954,0.081944,0.019237,-0.13536,0.56743,-0.51617,0.72897,-0.1798,-0.26858,0.65228,0.0069332,0.011338,-0.097971,0.017262,-0.2663,-0.15489,0.027651,0.24409,-0.047598,0.20684,-0.053785,-0.11412,-0.19278,0.22199,0.18049,-0.53746,0.52984,0.45518,-0.70665,0.21309,-0.38405,0.16861,-0.26378,-0.49815,0.49888,-0.10294,0.10445,-0.16037,0.0053907,-0.09007,-0.079478,-0.45505,-0.039564,0.11808,0.14895,0.038558,0.35282,-0.2842,-0.02556,0.3914,0.0385,0.55416,0.021369,0.32561,-0.040596,0.03502,-0.054169,0.48213,0.25334,0.2178,-0.12125,-0.4405,0.64693,0.070703,0.20591,0.050573,-0.68171,-0.0025221,0.15721,-0.43853,-0.66838,0.047886,0.35789,0.29176,0.34256,0.41538,-0.0063934,0.011628,-0.093656,0.12407,-0.28656,0.52864,0.059624,0.23293,-0.2471,0.26671,0.21567,-0.69689,0.26021,0.34525,-0.10162,0.1321,-0.030919,-0.15588,0.22465,0.085862,0.37817,0.23323,0.050626,0.39433,0.040995,0.60641,0.13883,-0.044998,0.49628,-0.21869,0.34931,-0.19528,0.011159,0.15407,-0.36259,-0.21524,-0.054488,0.16132,0.048127,-0.22714,0.27895,0.067495,0.2022,-0.21257,0.75314,0.2745,0.17338,-0.046864,-0.31731,0.011735,-0.27832,0.0607,0.22928,-0.037289,-0.28337,-0.46835,-0.16119,0.50579,0.38593,-0.2195,-0.033661,0.043215,-0.21429,-0.00096258,0.35208,-0.56311,0.20132,-0.71791,-0.35035,0.32649,-0.028509,0.31322,-0.12231,-0.21384,-0.19752,0.016595,-0.046077,0.23409,0.23375,-0.1349,-0.42553,0.052955,-0.29337,-0.031138
eager,-0.21933,0.25034,0.0042826,0.048307,-0.082663,-0.10591,0.078693,0.15159,-0.030132,0.25833,0.31629,0.36999,-0.27357,0.088673,-0.12339,0.6078,0.28292,-0.073143,0.10679,-0.3904,0.51513,0.71362,0.19736,-0.19468,-0.093898,-0.49971,0.18644,-0.28695,-0.3321,-0.10914,-0.16792,-0.11031,0.53599,-0.15863,-0.2138,0.39602,-0.033429,-0.41706,0.050869,0.008436,-0.013434,0.11804,-0.10814,-0.16858,-0.074523,-0.13386,-0.078846,-0.1656,0.26593,-0.012368,0.12223,-0.27852,0.097299,0.074111,-0.41942,0.020346,-0.31027,-0.4138,0.2203,0.2835,-0.40338,-0.21738,0.085459,0.18644,0.53331,0.21052,-0.2009,0.13846,-0.062317,0.027714,0.1154,0.33579,0.027731,0.22697,-0.44812,-0.27608,-0.13886,0.2271,0.014421,-0.18352,0.35366,-0.3579,0.20736,0.2107,0.13507,-0.14182,0.16406,-0.19379,-0.089195,0.11026,0.24457,0.023939,0.29113,-0.12975,0.10179,0.021463,0.12719,0.071485,0.22054,0.01744,-0.22023,0.28844,0.24009,0.22497,0.17398,0.092515,-0.57294,0.0036124,0.13492,0.054313,0.15346,0.1783,-0.22252,0.050646,-0.0010738,-0.05474,-0.36142,0.29865,-0.1452,-0.29574,0.18891,0.21565,0.22874,-0.01624,0.10443,-0.17218,0.15569,-0.1519,0.17716,-0.0095841,-0.23023,0.29153,0.046884,0.22872,-0.33416,-0.046037,0.12072,-0.36849,0.010012,-0.11905,-0.14923,-0.067807,0.014768,-0.01575,0.049462,-0.19884,0.13502,-0.23885,-0.12144,-0.049117,0.22415,0.21676,0.2576,0.14359,-0.25897,-0.23784,-0.0080586,0.70686,0.16301,0.080305,0.45541,0.029505,-0.18072,0.20319,-0.15211,-0.23142,0.028979,0.086377,-0.059199,0.01912,0.18946,0.16282,-0.070771,-0.23583,-0.046694,0.16728,-0.43472,-0.32132,0.12712,0.57618,-0.17337,-0.18375,-0.051152,-0.048779,-0.050434,0.31962,-0.13959,0.024224,0.12115,0.19959,0.040511,0.4602,-0.30377,0.25846,0.16893,-0.14552,-0.29471,0.34179,-0.058001,0.11553,0.027587,0.33189,-0.0079476,0.13881,-0.32949,0.22184,-0.4202,0.017771,0.69233,-0.055712,0.37819,0.037614,-0.37552,0.036217,0.12963,0.35364,0.21795,-0.12832,-0.29781,-0.055846,0.054047,-0.09391,0.0051158,-0.20318,-0.11511,-0.21214,0.037711,-0.081722,-0.12407,0.024943,0.014049,-0.23202,0.28084,-0.088322,0.27211,0.34268,0.15567,-0.4486,0.26587,0.088623,0.27705,0.34785,-0.16528,0.072552,0.4371,-0.29322,0.099362,-0.21935,0.62809,-0.17782,-0.08964,-0.44643,-0.22504,0.31993,-0.28748,-0.22011,-0.30095,-0.20158,-0.26924,-0.10343,0.21124,0.0095117,0.010597,0.17134,-0.16392,0.20081,0.1325,-0.30269,-0.059682,-0.02266,0.15419,-0.23527,0.21628,-0.051385,-0.14194,0.37137,0.39194,-0.20787,-0.12993,-0.15244,0.41896,-0.33072,0.38147,-0.23619,-0.36114,-0.062,-0.24753,0.41904,0.23705,-0.69526,-0.58008,-0.28729,0.38139,-0.043761,-0.036031,-0.090301,-0.14114,-0.022663,0.27494,0.38528
earnest,0.14595,0.037999,-0.17061,-0.14948,-0.14115,-0.23824,0.01871,0.1312,-0.091732,-0.058034,0.46582,0.12031,0.077328,0.31554,0.18007,-0.15645,-0.034572,-0.3579,-0.084606,0.093551,-0.065897,0.70895,0.48128,-0.29444,0.10932,0.090053,0.3002,-0.29638,-0.40058,-0.028322,0.09833,-0.19396,0.2601,0.26213,0.1404,0.01156,-0.26831,-0.072561,-0.2096,0.36657,-0.10871,0.13632,0.0029564,-0.0085149,-0.19586,-0.32721,-0.23393,-0.29761,0.41403,0.041371,0.091456,-0.3,-0.33484,0.2205,0.12854,-0.16437,0.080743,-0.21532,0.039033,0.023019,-0.69983,-0.12563,-0.080109,-0.19543,-0.060619,0.083799,0.3983,0.071398,0.3507,0.022709,-0.064821,-0.17352,-0.39231,-0.13806,-0.12389,-0.40614,0.44155,0.21259,-0.33113,0.25013,-0.20239,0.68301,0.079754,0.15484,0.33989,0.048268,0.29644,-0.29777,-0.078247,0.43763,0.38117,0.21282,0.088745,-0.18945,-0.034894,-0.12113,-0.21547,0.062215,-0.0029141,-0.077274,0.13504,0.40406,-0.02831,-0.014379,0.28286,0.070955,-0.3163,0.020786,0.15325,0.061809,0.022738,0.1341,-0.29895,0.016014,-0.26132,0.15435,-0.15351,0.1557,-0.42808,-0.10253,0.38462,-0.24778,0.0077099,0.40368,0.03212,0.10309,0.59561,-0.12722,-0.076447,0.24434,0.016767,-0.17718,-0.50631,-0.16687,-0.12566,0.1963,0.58012,-0.18946,0.26156,0.11897,-0.02554,-0.015977,0.12105,-0.1716,-0.26149,-0.34435,-0.082858,0.16565,-0.052699,-0.45176,0.079747,-0.076415,0.031093,-0.36242,-0.28308,-0.46507,-0.23811,0.33779,-0.122,0.39965,-0.07693,-0.15062,0.12066,0.10235,-0.01702,-0.036642,0.40934,0.15992,-0.06784,0.11584,0.33346,0.1153,-0.13154,0.010875,-0.13033,0.20379,-0.27753,-0.33645,0.041434,0.25246,-0.092425,-0.41557,-0.11657,-0.13111,0.036819,0.082401,-0.26519,0.48923,0.28315,0.77341,0.052088,0.18207,0.016438,-0.066436,0.065728,-0.36243,-0.071911,0.12579,-0.30513,0.26787,0.16158,0.28285,-0.35002,-0.028371,-0.076354,0.016503,-0.2771,0.28468,0.57497,-0.50504,0.37887,0.062949,-0.30219,0.43592,0.31022,0.50872,0.22086,-0.27028,-0.20548,0.0012528,-0.2684,-0.056257,0.35948,0.07404,0.16891,0.10603,-0.053392,-0.26609,-0.13356,0.14624,0.29331,0.17349,0.057792,0.075421,0.22455,0.0061136,-0.081283,-0.074748,-0.085737,0.20043,0.055613,0.13577,-0.067642,-0.42391,0.16939,-0.0036552,-0.1089,0.23964,0.43223,-0.16267,0.093099,-0.060466,-0.27588,0.13563,-0.23403,0.19525,0.037096,-0.011981,-0.19534,0.053549,0.5229,0.19451,0.38942,0.36176,-0.19478,0.29148,0.10462,-0.24204,-0.36406,-0.35734,0.07438,-0.3587,-0.0050832,-0.014522,-0.020459,-0.32424,0.073552,0.1633,-0.20633,-0.52146,0.11315,-0.58435,0.1737,-0.14312,-0.6812,-0.059535,-0.31599,0.56652,-0.45891,-0.7481,-0.22326,0.0024176,0.49182,0.19195,-0.12204,-0.13732,0.19959,0.29768,0.04016,0.3355
emotionless,0.192,0.15925,0.041254,0.17633,-0.33828,0.18019,0.11947,0.10475,0.33271,0.10859,-0.13104,0.068788,-0.37111,0.046004,0.2384,-0.26985,-0.16723,-0.017501,-0.26019,-0.49013,0.099942,0.90933,-0.26025,-0.053095,-0.020945,0.22128,-0.13436,0.54511,0.54129,-0.51075,0.16438,0.08321,0.062012,0.52951,-0.20407,-0.15583,0.11901,0.13768,0.093642,0.28653,0.64858,0.14053,-0.32243,-0.14693,-0.50145,-0.026915,0.10857,-0.12233,-0.10966,0.79633,0.51324,0.16303,0.39652,0.93527,0.14693,-0.4173,-0.20321,-0.25967,-0.13231,0.46004,-0.054682,-0.15927,0.018052,0.18242,-0.47032,0.044783,0.2047,0.19565,-0.23062,-0.10764,-0.27577,-0.12626,-0.17962,0.16883,-0.020919,-0.022926,-0.24094,0.07172,0.028782,-0.17143,-0.12351,0.45098,-0.40149,0.20968,0.40441,-0.2304,0.078744,-0.56299,0.058516,-0.20062,0.49959,-0.015181,-0.25046,-0.527,-0.44556,0.017489,0.13746,0.19036,0.26395,-0.047301,0.22488,0.10689,0.2243,-0.39962,0.1119,0.25144,-0.12858,-0.35309,0.07591,-0.60471,-0.19889,-0.35381,-0.15205,-0.17279,-0.23597,0.060397,0.41444,0.45962,0.64669,-0.17763,0.011735,0.35265,-0.095567,-0.13393,0.0098715,0.20821,0.090667,0.012534,-0.17545,0.50235,-0.19478,-0.29246,-0.040344,0.01425,-0.52653,0.19472,-0.044021,-0.47828,-0.53163,-0.033342,-0.65185,0.21312,0.17819,-0.37342,0.26417,0.095295,0.42322,0.12707,-0.52596,-0.047029,0.23277,-0.21591,0.026562,-0.0065612,-0.39714,-0.32671,-0.29806,0.61635,0.14293,-0.25372,0.29618,-0.25125,-0.039045,0.49521,-0.31634,0.21064,-0.046421,0.3884,0.2124,-0.11593,-0.085995,0.19815,0.33361,-0.23922,0.29374,-0.037481,-0.03552,-0.15529,-0.17908,0.46702,-0.20739,-0.43547,-0.17397,-0.1562,-0.14215,0.31582,0.090684,0.11438,0.44384,0.32145,-0.28203,0.3019,-0.73591,-0.33747,0.25492,-0.27793,-0.48888,0.39511,-0.45238,0.48674,0.17957,0.18581,-0.0037219,0.18262,0.14698,0.42773,-0.011876,0.36314,0.39974,0.39634,0.12183,-0.20936,0.23188,-0.031019,0.28997,0.29383,0.099498,0.07681,0.0019186,-0.18784,0.37682,0.051271,-0.17029,-0.053926,-0.39134,-0.54406,0.010405,-0.81128,-0.014565,0.38145,0.32002,0.24411,0.25845,-0.48018,0.41808,0.53978,0.42409,-0.27861,-0.082808,0.53248,-0.078823,0.026352,-0.19984,-0.19571,0.13057,-0.038041,0.37661,0.31151,0.44322,-0.33549,-0.33257,0.026097,0.17338,0.41266,-0.30049,-0.28388,0.08291,-0.6806,-0.52509,0.15544,0.45627,-0.26003,-0.038488,0.082561,-0.22216,0.19286,0.25939,-0.45019,-0.26501,-0.014235,0.067937,-1.0992,0.1384,0.44479,0.69693,0.026322,0.29856,0.58373,0.42162,-0.33572,-0.080554,-0.62032,0.35041,-0.45556,-0.38994,0.14488,-0.32455,0.67632,-0.20679,-0.23338,-0.2854,-0.36928,0.2736,-0.40156,-0.32299,-0.15888,-0.3394,-0.020055,0.31073,0.14809
enraged,-0.35722,0.31495,-0.30821,0.35876,-0.2078,-0.20763,0.16089,0.016419,-0.14044,0.18139,0.15041,0.067314,0.026985,0.38693,0.2751,0.18908,0.2402,-0.14128,-0.19217,-0.15619,0.54625,0.37037,0.030538,-0.0034311,-0.099794,-0.25791,0.153,0.19313,0.04322,0.10161,-0.49895,0.11194,-0.13556,0.1272,-0.5509,-0.069124,0.034486,-0.038746,-0.14864,0.38271,0.016609,0.40843,0.0018947,-0.25469,0.22095,-0.17025,-0.36318,0.028048,0.1621,0.42177,-0.092382,-0.36898,0.24389,0.053042,-0.2998,-0.32307,-0.27809,-0.87934,-0.07266,0.41051,-0.52944,-0.15969,0.33038,-0.1856,-0.21213,-0.17458,-0.42725,0.59093,-0.65,0.30669,-0.20863,0.41102,0.35539,0.09956,0.047492,-0.19219,-0.29109,0.25446,0.086004,-0.33934,0.27095,-0.19716,0.2298,-0.039654,0.15083,-0.59021,-0.14319,-0.035877,-0.34345,-0.17611,0.24098,-0.33296,0.34587,-0.21673,-0.18461,-0.15691,0.29311,-0.20949,0.1172,0.15211,-0.053565,0.035603,0.075679,0.075763,-0.050975,-0.14575,0.048876,-0.46381,-0.12379,-0.34769,0.48082,0.27151,-0.046296,0.020157,-0.39056,-0.047838,-0.14713,0.56128,-0.22049,-0.092492,-0.037753,0.20575,0.28262,0.14827,0.041109,-0.07674,-0.2598,-0.36008,0.015624,0.073228,0.19369,-0.26482,0.013233,-0.0024169,0.18551,0.19137,-0.089767,-0.37075,-0.042971,0.16728,-0.12931,-0.46101,-0.28589,0.0093002,0.30195,0.024288,0.37459,-0.2873,-0.48578,-0.16302,0.20655,-0.089311,0.18428,0.34998,-0.4035,-0.053845,-0.34959,0.39885,-0.12222,-0.11801,0.067397,0.20859,0.52713,0.52494,-0.07814,-0.35261,0.47391,0.1364,-0.048961,-0.0051114,0.15978,-0.2052,0.023196,-0.29032,-0.12487,-0.008453,-0.67538,-0.05813,0.33019,0.18651,-0.35416,-0.48409,-0.35413,0.36328,0.38987,0.21945,0.40132,0.034243,-0.036497,0.062514,-0.41358,0.13721,-0.18459,-0.073813,0.13866,0.034237,-0.15974,0.49983,0.35387,0.022953,0.26902,0.13643,0.12231,0.0098341,0.28106,0.44767,-0.26748,0.32773,0.52194,0.27882,0.31174,-0.23206,-0.25226,-0.27663,0.035948,0.33732,0.23335,0.036016,0.010059,0.027967,0.32388,0.27118,-0.3376,-0.12768,-0.75496,-0.197,0.044629,-0.67615,-0.60384,0.19197,0.29401,-0.10565,0.42183,0.30032,-0.11679,-0.082925,0.43051,0.10012,0.44479,0.1809,-0.090918,0.33711,0.042364,-0.071474,0.27612,-0.27267,0.1124,0.15774,0.37378,-0.22825,0.0045669,-0.22128,-0.34763,0.48344,-0.1278,0.084657,0.11688,-0.13872,-0.38021,0.24476,0.41643,0.081458,0.069822,0.67057,-0.38689,0.34627,0.28986,0.087472,-0.299,0.38875,0.18425,0.041258,0.27029,0.35052,0.23175,0.19356,0.52335,0.1458,-0.043407,-0.21188,0.53905,-0.31002,0.64068,-0.19633,-0.2898,0.011084,-0.30997,0.48999,0.053812,-0.415,-0.45851,-0.15444,0.17611,-0.47241,-0.082145,-0.21657,0.096915,0.003287,0.17309,-0.16644
enthusiastic,0.13946,0.29498,-0.27511,-0.35372,-0.07591,0.10703,0.12492,-0.18102,-0.14463,0.19406,0.015098,0.41182,0.096158,0.2753,-0.22999,0.27494,0.018168,-0.66523,0.18148,-0.21203,0.13725,0.27129,0.26104,-0.32019,-0.091757,-0.18854,-0.16958,-0.28411,-0.31679,0.068753,0.0040334,-0.05765,0.51973,0.032494,-0.17038,0.23917,-0.019676,-0.19373,0.0061197,0.26956,0.15322,0.39689,0.017351,-0.17869,-0.024342,-0.20643,-0.055416,-0.24977,0.56936,0.23343,0.0062779,-0.094544,-0.082126,0.3649,-0.28935,-0.0085077,-0.23407,-0.36722,0.2736,0.12926,-0.33923,-0.073631,0.23971,-0.096501,0.20415,0.20329,-0.17837,0.1656,-0.16519,-0.092447,-0.0669,0.078201,-0.16803,-0.0046679,-0.026045,-0.12539,-0.21621,0.35326,-0.10281,-0.20958,-0.12619,0.36679,0.083836,0.18589,-0.059405,0.34969,0.20641,-0.41567,0.10114,-0.032787,0.292,-0.022437,0.17719,0.041135,-0.22424,-0.15713,-0.22092,0.35263,0.048782,0.16254,0.084393,0.24941,0.28686,-0.24675,0.49229,-0.056914,-0.29193,-0.15759,0.29611,-0.41797,0.02693,-0.008346,-0.018196,0.17923,-0.012078,-0.078905,-0.013773,0.22409,-0.57737,-0.36764,0.31541,0.083981,0.12098,0.27334,-0.38165,-0.13793,0.11312,-0.33265,0.312,0.059049,-0.20553,0.0084954,-0.20912,0.35712,-0.31549,0.088232,0.10979,-0.22118,-0.23284,-0.13432,-0.15367,0.091103,-0.22358,0.28394,-0.070968,-0.21169,-0.044655,0.13795,-0.0043033,0.023899,-0.37611,-0.10262,0.36033,0.086947,-0.36943,-0.6282,-0.010497,0.71017,0.093433,-0.0853,0.6836,-0.08768,0.43309,0.48487,-0.34546,-0.41442,0.51656,0.35485,-0.095308,-0.071776,0.33566,0.11,-0.3353,-0.5107,0.21855,0.33698,-0.21749,-0.1624,0.11565,0.18045,-0.52835,-0.098429,-0.10651,-0.096448,-0.04903,0.24169,-0.16872,0.35488,0.23048,0.29958,-0.070606,0.65889,-0.18736,0.042303,0.15272,-0.28581,-0.18427,0.10808,-0.28075,0.029918,-0.1168,0.28763,-0.35555,0.16522,-0.10198,0.57675,-0.44271,0.10949,0.64542,-0.2649,0.014448,0.32811,-0.26557,0.38398,0.33344,0.43314,0.13015,-0.36913,0.096482,0.059251,0.028472,0.070077,0.060297,-0.42022,-0.021147,0.13757,-0.18041,-0.39827,-0.12478,-0.03693,0.028102,-0.30199,0.21437,0.042745,0.35335,0.34282,0.56275,-0.23349,0.073679,-0.13196,0.15065,0.10013,-0.24192,-0.17426,-0.018647,-0.30882,0.090859,0.10073,0.17298,0.10331,0.10246,-0.023543,-0.27326,0.47003,-0.23281,-0.17314,-0.34181,-0.081171,-0.19564,0.16081,0.18537,-0.19278,0.45686,0.32689,-0.19246,0.23351,0.090467,-0.5064,-0.12754,-0.10984,0.50494,-0.30277,-0.019758,-0.074533,0.14621,0.19122,0.14926,-0.42291,-0.020994,-0.029444,0.60098,-0.45313,-0.040429,-0.38206,-0.34838,0.035367,-0.41529,0.35585,-0.097382,-0.43369,-0.15789,-0.13879,0.60857,-0.020713,-0.070205,-0.39713,-0.10483,0.018246,0.18913,0.14693
fatherly,-0.076721,-0.27496,-0.44379,0.1223,-0.21395,0.47128,0.16904,-0.30299,0.1969,0.33919,-0.32352,0.0064301,-0.027204,-0.19754,-0.38995,0.017022,-0.21633,-0.044645,-0.0032874,-0.42708,0.44577,0.56575,0.28151,-0.18688,-0.021844,-0.23245,0.48042,0.030455,0.051145,0.089814,-0.28821,0.056899,0.022849,0.013212,0.1201,-0.055258,-0.17696,-0.27329,-0.16894,-0.26955,0.16018,0.15199,-0.10602,-0.2312,0.33094,-0.081192,-0.16988,-0.2477,0.02064,0.40009,0.49397,0.091671,0.23693,0.0076723,0.0016252,-0.82739,-0.039658,-0.18056,-0.17269,0.1128,-0.5252,0.13325,-0.1148,0.049067,-0.036145,-0.097248,0.29147,0.06514,-0.050012,-0.22391,-0.2297,-0.16552,-0.10025,0.23961,-0.16795,-0.0901,0.027465,0.080065,0.049281,0.80695,0.15141,0.38975,-0.23824,0.17999,0.14342,-0.4395,-0.053796,-0.24034,-0.022238,0.12084,0.19795,0.22129,-0.021938,0.053055,-0.053243,-0.16316,-0.11551,-0.026946,0.15923,0.23042,0.30092,0.39754,0.27114,-0.074549,0.21771,0.46671,-0.32766,-0.48022,-0.017917,-0.48281,0.081833,-0.26371,0.14461,0.1369,0.31557,-0.47554,-0.04426,0.54748,-0.068921,-0.94269,0.25472,-0.016067,0.24424,-0.29394,-0.39525,-0.1241,0.33474,-0.0070568,-0.085541,0.048414,-0.42733,0.048338,-0.27474,-0.22674,-0.46104,0.17443,0.30427,-0.24881,-0.089496,0.090338,-0.026793,0.19186,0.15709,0.0083186,-0.23736,0.43361,-0.0040352,-0.017004,0.10341,-0.0065788,-0.2281,-0.44067,0.84749,0.0045905,-0.3715,-0.55865,-0.55712,0.36355,0.38032,-0.14329,0.085743,-0.4781,-0.12891,0.2229,-0.33104,-0.020447,0.20447,0.16822,-0.48744,0.11722,-0.11953,0.45459,-0.065818,-0.38571,-0.12017,0.02057,-0.081554,-0.25472,0.33055,0.44156,-0.40012,-0.11693,0.091937,-0.30328,-0.058866,0.34588,0.033619,0.17271,-0.16945,0.23852,-0.30588,0.22143,-0.21721,-0.18924,-0.32758,-0.27894,-0.11456,0.36407,-0.029409,0.18824,0.24664,0.31093,0.27916,-0.28356,0.021237,-0.032892,0.053298,0.34978,0.35481,0.12279,0.20983,0.1578,-0.28274,0.1038,-0.00082707,0.17047,-0.17613,-0.3186,-0.33349,-0.018672,-0.23852,0.024659,-0.031785,0.17921,-0.5836,-0.16838,0.071671,-0.29369,-0.09644,0.14366,-0.19911,0.48155,0.36275,-0.030876,0.055771,-0.011948,0.10221,-0.12076,0.6397,0.036189,-0.025104,0.21118,0.15969,-0.34681,0.071802,-0.27708,0.55221,0.30327,0.24407,0.12002,-0.12588,0.4027,0.0054195,0.042172,-0.22438,0.41519,0.44156,0.21602,-0.28878,0.15443,0.5334,-0.37713,0.38793,-0.27422,-0.53405,-0.047313,0.3787,0.042088,-0.38667,-0.32111,-0.17688,0.083075,-0.119,0.15485,0.10921,0.19016,-0.057038,0.089832,-0.22675,0.015917,0.29046,-0.42221,0.12404,-0.44529,-0.29367,0.31607,-0.30417,0.62553,-0.26761,-0.35406,-0.48845,-0.16054,0.64303,-0.058693,-0.01273,-0.020025,0.10484,-0.13635,0.17245,-0.2842
ferocious,0.28309,-0.19555,0.24032,0.13307,0.21312,0.18982,0.18139,-0.13295,0.047455,0.026703,-0.10749,0.12284,0.15437,0.34147,0.45311,-0.21734,-0.19852,-0.13053,-0.40542,-0.311,0.16399,0.74844,-0.13089,0.053362,0.093003,-0.02143,0.005563,-0.32037,-0.18294,0.35647,-0.23286,0.30274,0.25457,0.40935,-0.33954,0.28208,0.071195,-0.39645,-0.355,0.26935,0.25511,0.18633,-0.23974,-0.19197,0.086186,-0.57764,-0.24996,-0.28571,-0.12044,0.15716,0.18785,-0.38916,-0.032235,0.01344,-0.11816,-0.17507,-0.29863,-0.32161,0.39449,0.38367,-0.55664,-0.062263,-0.11407,0.09792,-0.2556,-0.078396,-0.20233,0.37729,-0.084717,0.086003,-0.1878,0.048846,0.19683,0.29964,-0.17638,-0.1931,-0.11265,-0.10611,-0.019939,-0.35358,0.11152,0.30285,0.057241,0.076084,-0.052604,-0.23614,-3.9758e-05,0.14584,-0.12812,0.1503,0.25534,-0.072769,0.76564,-0.12906,-0.36462,-0.13182,0.36381,0.1572,-0.37488,-0.26675,0.13417,-0.050693,-0.22841,-0.017211,0.25382,0.1357,0.14734,-0.13933,-0.014564,-0.29804,-0.011528,0.30546,0.056607,-0.032651,0.058851,-0.26532,0.083417,0.58295,-0.056987,-0.49353,-0.14636,0.37417,-0.40276,0.45756,-0.44913,-0.44936,0.0027105,-0.060761,-0.093504,0.33935,0.43248,-0.64284,-0.4216,0.39154,0.04511,-0.39934,-0.4716,-0.31802,-0.2413,0.26345,-0.34078,-0.48123,-0.1672,-0.23521,0.2151,-0.26928,-0.047287,-0.27407,-0.18095,-0.35736,-0.047623,0.21924,0.42891,0.6066,-0.29916,-0.31855,-0.36961,0.57993,-0.15993,0.26347,0.013712,-0.20164,0.27403,0.053515,-0.59772,0.43732,0.019862,0.35375,0.3305,-0.11642,0.13932,-0.3647,-0.19801,-0.043189,-0.10965,-0.20136,-0.21012,-0.56499,0.59899,0.041522,-0.028961,-0.15039,-0.32465,0.016891,0.043765,0.24167,-0.014681,0.5972,0.32761,-0.02304,-0.57477,0.30342,0.09823,0.087581,-0.081965,-0.26947,-0.2139,0.42451,0.050796,0.28208,0.24271,0.33403,-0.035589,0.089173,0.25386,0.37139,-0.28371,0.29206,0.69672,0.074609,-0.037837,0.11481,0.13307,-0.018143,0.31716,0.01526,-0.095527,-0.36173,-0.02765,0.27225,-0.10946,0.31565,-0.23442,0.54956,0.043135,-0.029072,0.16596,-0.54799,-0.11688,0.26257,0.32519,0.25254,0.19228,-0.18163,0.026005,0.0065755,0.27729,-0.28355,0.16214,0.050642,0.57249,0.25328,-0.52873,0.13241,-0.016141,0.12763,0.039819,0.089745,0.031755,-0.53335,-0.34894,0.18876,-0.18071,0.49376,-0.5519,-0.16852,-0.060972,-0.026287,0.18687,-0.12697,0.53837,-0.29333,0.20303,0.45134,-0.36266,0.016413,0.097579,-0.11816,-0.43603,0.19354,0.20283,-0.13312,0.45368,0.16347,-0.01108,-0.051532,0.6927,0.39006,0.13792,-0.49712,0.41708,-0.49572,0.21435,-0.39086,-0.19819,0.29709,-0.079212,0.67395,-0.12055,-0.19231,-0.49966,-0.0027237,-0.10772,-0.36628,-0.41778,-0.40613,0.20095,0.20433,0.34037,0.11036
fervent,0.27877,-0.06393,-0.27561,-0.051019,0.20332,0.13558,0.074248,-0.13532,-0.17464,-0.012547,0.28649,-0.030873,-0.081998,-0.058186,0.21962,0.29697,-0.20521,-0.15069,0.10519,-0.109,0.46874,0.46869,0.17528,-0.59374,-0.0016242,0.32221,-0.14227,-0.4085,-0.12397,0.088651,0.019842,-0.17723,-0.2244,0.18117,-0.19522,0.16147,-0.016207,-0.062742,-0.53599,0.1807,0.16332,0.52296,0.31801,-0.18617,-0.27523,-0.42192,0.34936,-0.43405,0.16308,-0.25664,-0.035144,-0.33557,0.14401,0.076805,-0.21952,-0.29111,-0.40227,-0.4844,0.042229,0.37069,-0.85452,0.18925,0.37491,-0.41706,0.32975,-0.3874,-0.47267,0.094012,-0.37209,-0.031445,-0.12148,0.17661,-0.4236,0.15016,-0.24498,-0.30595,-0.11213,0.23027,-0.30802,0.16115,0.16943,0.28724,0.15049,-0.25464,0.10284,-0.17038,0.16982,0.14734,-0.27199,0.020603,0.21787,0.092679,0.032233,0.0055214,-0.025659,-0.0087732,-0.35967,-0.13976,0.16433,-0.022943,0.1737,0.33367,0.089502,0.058614,0.38474,0.086175,-0.36827,-0.2792,0.31623,-0.26801,0.27231,0.089979,0.10267,-0.06501,-0.27057,-0.044854,0.06586,0.25798,-0.10326,-0.331,-0.00062625,-0.086707,0.23101,0.20667,-0.50518,-0.51215,0.044321,-0.46009,0.014622,0.24562,-0.15379,-0.053787,-0.20773,0.43599,-0.33633,0.095151,-0.0036146,-0.22305,-0.13928,-0.21769,-0.28593,0.0017354,-0.17404,-0.11057,0.04025,0.030838,0.41035,0.48483,-0.48186,0.055157,-0.18002,0.34594,0.26853,0.058129,-0.37656,-0.78204,0.20424,0.62433,-0.010935,0.035606,0.29012,-0.15945,0.46764,0.43517,-0.66759,-0.15534,0.50956,0.4322,-0.023963,0.055406,0.32305,0.1143,-0.043802,-0.41223,0.2843,0.050295,-0.33694,-0.30328,0.36068,-0.29626,-0.45383,-0.29264,-0.55642,-0.11808,-0.47734,0.25512,0.02169,0.35775,-0.087584,0.38585,-0.087662,0.40883,0.29756,0.13375,0.34111,-0.060013,-0.43882,0.14474,-0.22954,0.15038,0.20477,0.29988,-0.22469,-0.026399,0.016335,0.30819,-0.62863,-0.18263,0.65808,-0.1951,-0.46583,0.32604,-0.070784,-0.054523,0.61546,0.24856,0.27443,-0.34165,-0.46562,-0.0017179,0.23748,0.30151,0.3087,-0.11255,-0.022011,0.052679,-0.41308,-0.11068,0.047816,0.1247,0.43787,-0.1008,0.39052,-0.0589,-0.16165,0.30935,0.27972,-0.23053,0.15812,0.14797,0.17313,0.43514,-0.36498,-0.22102,0.093327,0.20225,0.086066,-0.0055307,0.081666,0.03822,0.021976,-0.35299,0.08435,0.4044,0.098914,-0.18883,0.028097,-0.23289,-0.21105,0.27724,0.36988,-0.46332,0.51425,0.25696,-0.4556,0.39722,0.37098,-0.33078,-0.15213,-0.1054,-0.19688,0.091207,-0.037751,-0.020471,-0.032666,-0.12766,0.82263,-0.18664,0.00087878,-0.27576,0.22717,-0.72044,-0.37517,-0.71536,-0.31664,0.038057,-0.63519,0.42312,-0.22703,-0.86463,-0.46224,0.033737,0.30587,0.033087,-0.14961,-0.21619,-0.053775,0.2854,-0.079692,-0.076339
feverish,-0.070256,0.10093,-0.35617,0.060047,0.16151,0.19011,0.096965,0.33396,0.0042578,-0.047177,0.32689,0.20647,-0.022242,0.21195,0.24889,-0.41069,-0.10443,-0.11915,-0.33825,-0.084633,0.57293,0.81038,0.34907,-0.0092115,0.3629,-0.085749,0.21179,-0.32305,0.060815,-0.19146,0.087526,0.27528,-0.26399,0.24262,-0.012373,-0.2857,-0.29706,0.059337,0.10187,-0.18298,0.38544,0.12963,0.05349,0.34491,-0.37297,-0.45117,0.068824,-0.34373,0.21241,0.4365,0.28062,-0.063389,-0.23139,0.12639,-0.14914,-0.4813,-0.23248,0.056117,0.049281,0.19835,-0.24475,-0.42718,0.30359,0.22863,-0.10114,0.14486,-0.045443,0.14598,-0.098967,-0.22377,0.19418,0.30366,0.031047,-0.088348,-0.0057483,0.34959,-0.14638,-0.13987,-0.4512,-0.49452,0.15186,0.096424,0.01487,-0.3256,0.22209,0.25918,-0.0063902,-0.081568,-0.19171,0.41423,0.39289,0.082698,0.37955,0.085376,-0.16241,0.0069775,-0.043501,-0.12627,-0.19578,-0.11215,0.082467,0.48295,-0.19315,-0.11355,-0.017754,0.41544,0.023516,-0.1242,0.089884,-0.23103,0.20423,0.0091246,-0.069856,-0.37467,-0.28917,0.23514,-0.19398,0.142,0.20492,-0.14303,-0.11714,0.12259,0.31309,0.43369,0.078718,-0.44759,0.14359,-0.046102,0.066283,0.48035,0.0088624,0.13853,-0.39841,0.29216,-0.085891,0.17385,0.18334,-0.48452,-0.13037,0.27561,-0.16338,-0.30667,0.14451,0.28095,-0.23258,0.10316,0.51211,0.079054,-0.28134,0.23577,0.23096,-0.15794,-0.077909,0.26557,-0.25629,-0.6247,-0.51038,0.69127,-0.1279,0.12914,0.36718,-0.12633,-0.1682,0.36913,-0.10269,-0.17846,0.29009,0.55581,0.096527,0.10095,0.089708,0.33033,-0.33159,-0.2359,0.3317,0.073802,-0.46498,-0.35986,0.17941,0.23597,-0.15507,-0.41341,-0.13226,0.10647,0.056133,0.0097992,-0.10485,0.4578,0.59162,0.81584,-0.006237,-0.069558,-0.21054,0.25243,-0.073629,-0.075871,-0.50079,-0.45329,0.052147,0.090844,-0.090015,0.22953,0.066993,0.39169,-0.07033,0.14397,0.19279,0.24565,0.50968,-0.011824,0.4076,0.018361,-0.062696,0.087533,0.28226,0.18279,0.0074683,-0.026025,-0.060138,0.050176,-0.10564,0.36695,0.26953,0.23489,-0.0046466,-0.28398,-0.18039,-0.45292,0.14434,0.42514,0.10245,0.0077044,-0.035836,-0.3372,0.25912,0.23539,0.21549,0.2126,-0.19425,0.091577,0.35411,0.56082,-0.28032,-0.36566,0.53534,-0.21498,-0.033315,-0.20389,0.01301,-0.25696,-0.21495,0.000304,0.12473,0.29904,-0.36204,-0.1893,0.23098,-0.084423,-0.16219,0.19455,0.3076,0.10619,0.43002,0.30979,0.19952,-0.15066,0.066702,0.10844,-0.35602,0.063808,-0.051599,-0.59111,0.41328,-0.10076,0.042934,-0.28185,0.49584,0.568,0.24032,-0.066627,0.72194,-0.72539,0.049882,-0.21838,-0.51027,-0.18525,-0.053981,0.71316,-0.12064,-0.26149,-0.41646,-0.037628,0.41276,0.20408,-0.36601,-0.048201,-0.35397,0.27564,0.18136,0.56492
fierce,0.14112,0.014734,-0.16488,-0.30932,0.49226,0.27387,0.22172,0.20048,0.11748,-0.18213,0.12009,0.26487,0.18557,0.41708,0.44584,-0.15762,-0.22134,0.18305,-0.40777,-0.13828,0.32476,0.3581,-0.084344,0.14876,-0.030783,0.19455,0.071429,-0.271,-0.38804,0.36065,-0.25915,0.079516,0.20435,0.49826,-0.17363,0.56127,-0.1926,-0.27839,-0.48674,0.019089,0.15586,0.33081,0.033436,-0.16685,-0.014516,-0.51822,0.13064,-0.71963,-0.10564,0.041491,0.22219,-0.39761,0.044621,-0.19193,-0.09815,-0.3722,-0.24146,-0.28811,0.091186,0.41296,-0.4143,0.15544,-0.088127,0.012682,-0.41086,-0.088199,0.22345,0.51531,-0.074405,0.31436,0.18831,-0.0045706,-0.03121,0.30045,-0.35192,-0.076517,0.067095,0.0080588,-0.48405,-0.077799,0.091069,0.12048,0.074503,0.21362,0.14777,-0.12483,-0.17092,0.073077,-0.085126,0.18329,0.38191,-0.0058141,0.61004,0.013867,-0.43536,-0.077674,0.32344,0.21068,-0.099376,-0.10562,-0.019974,-0.22003,-0.284,-0.073805,0.3372,-0.06648,0.24189,-0.24572,0.25936,-0.22348,0.11576,0.35544,-0.0096167,-0.046871,-0.10004,-0.20526,0.20355,0.46029,0.083021,-0.6116,-0.21196,0.083743,-0.29998,0.14725,-0.2265,-0.47046,0.18901,-0.19127,-0.030635,0.14192,0.4332,-0.69483,-0.2157,0.11555,0.093989,-0.38663,-0.36876,-0.14033,0.064639,-0.064845,-0.16164,-0.59761,-0.10179,-0.15459,0.30027,-0.30305,0.025034,-0.12226,-0.044526,-0.26716,-0.37508,0.24555,0.068958,0.59821,-0.30269,-0.34942,-0.23141,0.54509,-0.039237,0.19068,0.37397,-0.40126,0.18705,0.18209,-0.64522,0.1492,0.16515,0.32039,-0.071233,-0.38901,-0.0085223,-0.11623,-0.10301,-0.02077,0.10351,-0.30395,-0.71848,-0.87037,0.73504,0.070356,-0.21002,-0.15893,-0.33243,-0.11628,-0.26975,0.18689,-0.029061,0.50256,0.096637,0.17743,-0.18599,0.13518,0.021542,0.19991,-0.18099,-0.12862,-0.13079,0.44502,0.010442,0.37891,0.026145,0.24217,-0.18146,0.18852,0.11202,0.14205,-0.45824,0.3921,0.8098,-0.13034,0.092129,0.31921,0.1672,0.029303,0.17109,0.10135,-0.17717,-0.39492,-0.056847,0.41212,0.016494,0.22129,0.036696,0.38812,0.0056059,0.08664,0.13263,-0.49513,0.096513,0.45682,0.32166,-0.0051786,0.43239,-0.33988,-0.0052302,0.00053922,0.24548,-0.27527,0.2089,-0.11496,0.60988,0.21043,-0.44083,-0.070533,0.062722,0.20373,0.060265,0.097625,-0.21319,-0.32603,-0.26418,0.068139,0.16732,0.23659,-0.63029,-0.2614,-0.22358,-0.15645,0.26453,-0.17451,0.40812,-0.23842,0.16081,0.16457,-0.59742,0.16239,0.071627,-0.25289,-0.27131,-0.087872,0.047653,-0.21133,0.36532,0.1917,-0.18132,-0.010001,0.53313,0.31562,-0.019189,-0.22315,0.24062,-0.30854,0.42199,-0.36648,-0.27826,0.3201,0.028516,0.82314,-0.11425,-0.21703,-0.64717,0.0010277,0.0099235,-0.2107,-0.29545,-0.3028,0.011063,0.3002,0.26515,0.16672
